tree
version=v4
num_class=1
num_tree_per_iteration=1
label_index=0
max_feature_idx=2380
objective=binary sigmoid:1
feature_names=Column_0 Column_1 Column_2 Column_3 Column_4 Column_5 Column_6 Column_7 Column_8 Column_9 Column_10 Column_11 Column_12 Column_13 Column_14 Column_15 Column_16 Column_17 Column_18 Column_19 Column_20 Column_21 Column_22 Column_23 Column_24 Column_25 Column_26 Column_27 Column_28 Column_29 Column_30 Column_31 Column_32 Column_33 Column_34 Column_35 Column_36 Column_37 Column_38 Column_39 Column_40 Column_41 Column_42 Column_43 Column_44 Column_45 Column_46 Column_47 Column_48 Column_49 Column_50 Column_51 Column_52 Column_53 Column_54 Column_55 Column_56 Column_57 Column_58 Column_59 Column_60 Column_61 Column_62 Column_63 Column_64 Column_65 Column_66 Column_67 Column_68 Column_69 Column_70 Column_71 Column_72 Column_73 Column_74 Column_75 Column_76 Column_77 Column_78 Column_79 Column_80 Column_81 Column_82 Column_83 Column_84 Column_85 Column_86 Column_87 Column_88 Column_89 Column_90 Column_91 Column_92 Column_93 Column_94 Column_95 Column_96 Column_97 Column_98 Column_99 Column_100 Column_101 Column_102 Column_103 Column_104 Column_105 Column_106 Column_107 Column_108 Column_109 Column_110 Column_111 Column_112 Column_113 Column_114 Column_115 Column_116 Column_117 Column_118 Column_119 Column_120 Column_121 Column_122 Column_123 Column_124 Column_125 Column_126 Column_127 Column_128 Column_129 Column_130 Column_131 Column_132 Column_133 Column_134 Column_135 Column_136 Column_137 Column_138 Column_139 Column_140 Column_141 Column_142 Column_143 Column_144 Column_145 Column_146 Column_147 Column_148 Column_149 Column_150 Column_151 Column_152 Column_153 Column_154 Column_155 Column_156 Column_157 Column_158 Column_159 Column_160 Column_161 Column_162 Column_163 Column_164 Column_165 Column_166 Column_167 Column_168 Column_169 Column_170 Column_171 Column_172 Column_173 Column_174 Column_175 Column_176 Column_177 Column_178 Column_179 Column_180 Column_181 Column_182 Column_183 Column_184 Column_185 Column_186 Column_187 Column_188 Column_189 Column_190 Column_191 Column_192 Column_193 Column_194 Column_195 Column_196 Column_197 Column_198 Column_199 Column_200 Column_201 Column_202 Column_203 Column_204 Column_205 Column_206 Column_207 Column_208 Column_209 Column_210 Column_211 Column_212 Column_213 Column_214 Column_215 Column_216 Column_217 Column_218 Column_219 Column_220 Column_221 Column_222 Column_223 Column_224 Column_225 Column_226 Column_227 Column_228 Column_229 Column_230 Column_231 Column_232 Column_233 Column_234 Column_235 Column_236 Column_237 Column_238 Column_239 Column_240 Column_241 Column_242 Column_243 Column_244 Column_245 Column_246 Column_247 Column_248 Column_249 Column_250 Column_251 Column_252 Column_253 Column_254 Column_255 Column_256 Column_257 Column_258 Column_259 Column_260 Column_261 Column_262 Column_263 Column_264 Column_265 Column_266 Column_267 Column_268 Column_269 Column_270 Column_271 Column_272 Column_273 Column_274 Column_275 Column_276 Column_277 Column_278 Column_279 Column_280 Column_281 Column_282 Column_283 Column_284 Column_285 Column_286 Column_287 Column_288 Column_289 Column_290 Column_291 Column_292 Column_293 Column_294 Column_295 Column_296 Column_297 Column_298 Column_299 Column_300 Column_301 Column_302 Column_303 Column_304 Column_305 Column_306 Column_307 Column_308 Column_309 Column_310 Column_311 Column_312 Column_313 Column_314 Column_315 Column_316 Column_317 Column_318 Column_319 Column_320 Column_321 Column_322 Column_323 Column_324 Column_325 Column_326 Column_327 Column_328 Column_329 Column_330 Column_331 Column_332 Column_333 Column_334 Column_335 Column_336 Column_337 Column_338 Column_339 Column_340 Column_341 Column_342 Column_343 Column_344 Column_345 Column_346 Column_347 Column_348 Column_349 Column_350 Column_351 Column_352 Column_353 Column_354 Column_355 Column_356 Column_357 Column_358 Column_359 Column_360 Column_361 Column_362 Column_363 Column_364 Column_365 Column_366 Column_367 Column_368 Column_369 Column_370 Column_371 Column_372 Column_373 Column_374 Column_375 Column_376 Column_377 Column_378 Column_379 Column_380 Column_381 Column_382 Column_383 Column_384 Column_385 Column_386 Column_387 Column_388 Column_389 Column_390 Column_391 Column_392 Column_393 Column_394 Column_395 Column_396 Column_397 Column_398 Column_399 Column_400 Column_401 Column_402 Column_403 Column_404 Column_405 Column_406 Column_407 Column_408 Column_409 Column_410 Column_411 Column_412 Column_413 Column_414 Column_415 Column_416 Column_417 Column_418 Column_419 Column_420 Column_421 Column_422 Column_423 Column_424 Column_425 Column_426 Column_427 Column_428 Column_429 Column_430 Column_431 Column_432 Column_433 Column_434 Column_435 Column_436 Column_437 Column_438 Column_439 Column_440 Column_441 Column_442 Column_443 Column_444 Column_445 Column_446 Column_447 Column_448 Column_449 Column_450 Column_451 Column_452 Column_453 Column_454 Column_455 Column_456 Column_457 Column_458 Column_459 Column_460 Column_461 Column_462 Column_463 Column_464 Column_465 Column_466 Column_467 Column_468 Column_469 Column_470 Column_471 Column_472 Column_473 Column_474 Column_475 Column_476 Column_477 Column_478 Column_479 Column_480 Column_481 Column_482 Column_483 Column_484 Column_485 Column_486 Column_487 Column_488 Column_489 Column_490 Column_491 Column_492 Column_493 Column_494 Column_495 Column_496 Column_497 Column_498 Column_499 Column_500 Column_501 Column_502 Column_503 Column_504 Column_505 Column_506 Column_507 Column_508 Column_509 Column_510 Column_511 Column_512 Column_513 Column_514 Column_515 Column_516 Column_517 Column_518 Column_519 Column_520 Column_521 Column_522 Column_523 Column_524 Column_525 Column_526 Column_527 Column_528 Column_529 Column_530 Column_531 Column_532 Column_533 Column_534 Column_535 Column_536 Column_537 Column_538 Column_539 Column_540 Column_541 Column_542 Column_543 Column_544 Column_545 Column_546 Column_547 Column_548 Column_549 Column_550 Column_551 Column_552 Column_553 Column_554 Column_555 Column_556 Column_557 Column_558 Column_559 Column_560 Column_561 Column_562 Column_563 Column_564 Column_565 Column_566 Column_567 Column_568 Column_569 Column_570 Column_571 Column_572 Column_573 Column_574 Column_575 Column_576 Column_577 Column_578 Column_579 Column_580 Column_581 Column_582 Column_583 Column_584 Column_585 Column_586 Column_587 Column_588 Column_589 Column_590 Column_591 Column_592 Column_593 Column_594 Column_595 Column_596 Column_597 Column_598 Column_599 Column_600 Column_601 Column_602 Column_603 Column_604 Column_605 Column_606 Column_607 Column_608 Column_609 Column_610 Column_611 Column_612 Column_613 Column_614 Column_615 Column_616 Column_617 Column_618 Column_619 Column_620 Column_621 Column_622 Column_623 Column_624 Column_625 Column_626 Column_627 Column_628 Column_629 Column_630 Column_631 Column_632 Column_633 Column_634 Column_635 Column_636 Column_637 Column_638 Column_639 Column_640 Column_641 Column_642 Column_643 Column_644 Column_645 Column_646 Column_647 Column_648 Column_649 Column_650 Column_651 Column_652 Column_653 Column_654 Column_655 Column_656 Column_657 Column_658 Column_659 Column_660 Column_661 Column_662 Column_663 Column_664 Column_665 Column_666 Column_667 Column_668 Column_669 Column_670 Column_671 Column_672 Column_673 Column_674 Column_675 Column_676 Column_677 Column_678 Column_679 Column_680 Column_681 Column_682 Column_683 Column_684 Column_685 Column_686 Column_687 Column_688 Column_689 Column_690 Column_691 Column_692 Column_693 Column_694 Column_695 Column_696 Column_697 Column_698 Column_699 Column_700 Column_701 Column_702 Column_703 Column_704 Column_705 Column_706 Column_707 Column_708 Column_709 Column_710 Column_711 Column_712 Column_713 Column_714 Column_715 Column_716 Column_717 Column_718 Column_719 Column_720 Column_721 Column_722 Column_723 Column_724 Column_725 Column_726 Column_727 Column_728 Column_729 Column_730 Column_731 Column_732 Column_733 Column_734 Column_735 Column_736 Column_737 Column_738 Column_739 Column_740 Column_741 Column_742 Column_743 Column_744 Column_745 Column_746 Column_747 Column_748 Column_749 Column_750 Column_751 Column_752 Column_753 Column_754 Column_755 Column_756 Column_757 Column_758 Column_759 Column_760 Column_761 Column_762 Column_763 Column_764 Column_765 Column_766 Column_767 Column_768 Column_769 Column_770 Column_771 Column_772 Column_773 Column_774 Column_775 Column_776 Column_777 Column_778 Column_779 Column_780 Column_781 Column_782 Column_783 Column_784 Column_785 Column_786 Column_787 Column_788 Column_789 Column_790 Column_791 Column_792 Column_793 Column_794 Column_795 Column_796 Column_797 Column_798 Column_799 Column_800 Column_801 Column_802 Column_803 Column_804 Column_805 Column_806 Column_807 Column_808 Column_809 Column_810 Column_811 Column_812 Column_813 Column_814 Column_815 Column_816 Column_817 Column_818 Column_819 Column_820 Column_821 Column_822 Column_823 Column_824 Column_825 Column_826 Column_827 Column_828 Column_829 Column_830 Column_831 Column_832 Column_833 Column_834 Column_835 Column_836 Column_837 Column_838 Column_839 Column_840 Column_841 Column_842 Column_843 Column_844 Column_845 Column_846 Column_847 Column_848 Column_849 Column_850 Column_851 Column_852 Column_853 Column_854 Column_855 Column_856 Column_857 Column_858 Column_859 Column_860 Column_861 Column_862 Column_863 Column_864 Column_865 Column_866 Column_867 Column_868 Column_869 Column_870 Column_871 Column_872 Column_873 Column_874 Column_875 Column_876 Column_877 Column_878 Column_879 Column_880 Column_881 Column_882 Column_883 Column_884 Column_885 Column_886 Column_887 Column_888 Column_889 Column_890 Column_891 Column_892 Column_893 Column_894 Column_895 Column_896 Column_897 Column_898 Column_899 Column_900 Column_901 Column_902 Column_903 Column_904 Column_905 Column_906 Column_907 Column_908 Column_909 Column_910 Column_911 Column_912 Column_913 Column_914 Column_915 Column_916 Column_917 Column_918 Column_919 Column_920 Column_921 Column_922 Column_923 Column_924 Column_925 Column_926 Column_927 Column_928 Column_929 Column_930 Column_931 Column_932 Column_933 Column_934 Column_935 Column_936 Column_937 Column_938 Column_939 Column_940 Column_941 Column_942 Column_943 Column_944 Column_945 Column_946 Column_947 Column_948 Column_949 Column_950 Column_951 Column_952 Column_953 Column_954 Column_955 Column_956 Column_957 Column_958 Column_959 Column_960 Column_961 Column_962 Column_963 Column_964 Column_965 Column_966 Column_967 Column_968 Column_969 Column_970 Column_971 Column_972 Column_973 Column_974 Column_975 Column_976 Column_977 Column_978 Column_979 Column_980 Column_981 Column_982 Column_983 Column_984 Column_985 Column_986 Column_987 Column_988 Column_989 Column_990 Column_991 Column_992 Column_993 Column_994 Column_995 Column_996 Column_997 Column_998 Column_999 Column_1000 Column_1001 Column_1002 Column_1003 Column_1004 Column_1005 Column_1006 Column_1007 Column_1008 Column_1009 Column_1010 Column_1011 Column_1012 Column_1013 Column_1014 Column_1015 Column_1016 Column_1017 Column_1018 Column_1019 Column_1020 Column_1021 Column_1022 Column_1023 Column_1024 Column_1025 Column_1026 Column_1027 Column_1028 Column_1029 Column_1030 Column_1031 Column_1032 Column_1033 Column_1034 Column_1035 Column_1036 Column_1037 Column_1038 Column_1039 Column_1040 Column_1041 Column_1042 Column_1043 Column_1044 Column_1045 Column_1046 Column_1047 Column_1048 Column_1049 Column_1050 Column_1051 Column_1052 Column_1053 Column_1054 Column_1055 Column_1056 Column_1057 Column_1058 Column_1059 Column_1060 Column_1061 Column_1062 Column_1063 Column_1064 Column_1065 Column_1066 Column_1067 Column_1068 Column_1069 Column_1070 Column_1071 Column_1072 Column_1073 Column_1074 Column_1075 Column_1076 Column_1077 Column_1078 Column_1079 Column_1080 Column_1081 Column_1082 Column_1083 Column_1084 Column_1085 Column_1086 Column_1087 Column_1088 Column_1089 Column_1090 Column_1091 Column_1092 Column_1093 Column_1094 Column_1095 Column_1096 Column_1097 Column_1098 Column_1099 Column_1100 Column_1101 Column_1102 Column_1103 Column_1104 Column_1105 Column_1106 Column_1107 Column_1108 Column_1109 Column_1110 Column_1111 Column_1112 Column_1113 Column_1114 Column_1115 Column_1116 Column_1117 Column_1118 Column_1119 Column_1120 Column_1121 Column_1122 Column_1123 Column_1124 Column_1125 Column_1126 Column_1127 Column_1128 Column_1129 Column_1130 Column_1131 Column_1132 Column_1133 Column_1134 Column_1135 Column_1136 Column_1137 Column_1138 Column_1139 Column_1140 Column_1141 Column_1142 Column_1143 Column_1144 Column_1145 Column_1146 Column_1147 Column_1148 Column_1149 Column_1150 Column_1151 Column_1152 Column_1153 Column_1154 Column_1155 Column_1156 Column_1157 Column_1158 Column_1159 Column_1160 Column_1161 Column_1162 Column_1163 Column_1164 Column_1165 Column_1166 Column_1167 Column_1168 Column_1169 Column_1170 Column_1171 Column_1172 Column_1173 Column_1174 Column_1175 Column_1176 Column_1177 Column_1178 Column_1179 Column_1180 Column_1181 Column_1182 Column_1183 Column_1184 Column_1185 Column_1186 Column_1187 Column_1188 Column_1189 Column_1190 Column_1191 Column_1192 Column_1193 Column_1194 Column_1195 Column_1196 Column_1197 Column_1198 Column_1199 Column_1200 Column_1201 Column_1202 Column_1203 Column_1204 Column_1205 Column_1206 Column_1207 Column_1208 Column_1209 Column_1210 Column_1211 Column_1212 Column_1213 Column_1214 Column_1215 Column_1216 Column_1217 Column_1218 Column_1219 Column_1220 Column_1221 Column_1222 Column_1223 Column_1224 Column_1225 Column_1226 Column_1227 Column_1228 Column_1229 Column_1230 Column_1231 Column_1232 Column_1233 Column_1234 Column_1235 Column_1236 Column_1237 Column_1238 Column_1239 Column_1240 Column_1241 Column_1242 Column_1243 Column_1244 Column_1245 Column_1246 Column_1247 Column_1248 Column_1249 Column_1250 Column_1251 Column_1252 Column_1253 Column_1254 Column_1255 Column_1256 Column_1257 Column_1258 Column_1259 Column_1260 Column_1261 Column_1262 Column_1263 Column_1264 Column_1265 Column_1266 Column_1267 Column_1268 Column_1269 Column_1270 Column_1271 Column_1272 Column_1273 Column_1274 Column_1275 Column_1276 Column_1277 Column_1278 Column_1279 Column_1280 Column_1281 Column_1282 Column_1283 Column_1284 Column_1285 Column_1286 Column_1287 Column_1288 Column_1289 Column_1290 Column_1291 Column_1292 Column_1293 Column_1294 Column_1295 Column_1296 Column_1297 Column_1298 Column_1299 Column_1300 Column_1301 Column_1302 Column_1303 Column_1304 Column_1305 Column_1306 Column_1307 Column_1308 Column_1309 Column_1310 Column_1311 Column_1312 Column_1313 Column_1314 Column_1315 Column_1316 Column_1317 Column_1318 Column_1319 Column_1320 Column_1321 Column_1322 Column_1323 Column_1324 Column_1325 Column_1326 Column_1327 Column_1328 Column_1329 Column_1330 Column_1331 Column_1332 Column_1333 Column_1334 Column_1335 Column_1336 Column_1337 Column_1338 Column_1339 Column_1340 Column_1341 Column_1342 Column_1343 Column_1344 Column_1345 Column_1346 Column_1347 Column_1348 Column_1349 Column_1350 Column_1351 Column_1352 Column_1353 Column_1354 Column_1355 Column_1356 Column_1357 Column_1358 Column_1359 Column_1360 Column_1361 Column_1362 Column_1363 Column_1364 Column_1365 Column_1366 Column_1367 Column_1368 Column_1369 Column_1370 Column_1371 Column_1372 Column_1373 Column_1374 Column_1375 Column_1376 Column_1377 Column_1378 Column_1379 Column_1380 Column_1381 Column_1382 Column_1383 Column_1384 Column_1385 Column_1386 Column_1387 Column_1388 Column_1389 Column_1390 Column_1391 Column_1392 Column_1393 Column_1394 Column_1395 Column_1396 Column_1397 Column_1398 Column_1399 Column_1400 Column_1401 Column_1402 Column_1403 Column_1404 Column_1405 Column_1406 Column_1407 Column_1408 Column_1409 Column_1410 Column_1411 Column_1412 Column_1413 Column_1414 Column_1415 Column_1416 Column_1417 Column_1418 Column_1419 Column_1420 Column_1421 Column_1422 Column_1423 Column_1424 Column_1425 Column_1426 Column_1427 Column_1428 Column_1429 Column_1430 Column_1431 Column_1432 Column_1433 Column_1434 Column_1435 Column_1436 Column_1437 Column_1438 Column_1439 Column_1440 Column_1441 Column_1442 Column_1443 Column_1444 Column_1445 Column_1446 Column_1447 Column_1448 Column_1449 Column_1450 Column_1451 Column_1452 Column_1453 Column_1454 Column_1455 Column_1456 Column_1457 Column_1458 Column_1459 Column_1460 Column_1461 Column_1462 Column_1463 Column_1464 Column_1465 Column_1466 Column_1467 Column_1468 Column_1469 Column_1470 Column_1471 Column_1472 Column_1473 Column_1474 Column_1475 Column_1476 Column_1477 Column_1478 Column_1479 Column_1480 Column_1481 Column_1482 Column_1483 Column_1484 Column_1485 Column_1486 Column_1487 Column_1488 Column_1489 Column_1490 Column_1491 Column_1492 Column_1493 Column_1494 Column_1495 Column_1496 Column_1497 Column_1498 Column_1499 Column_1500 Column_1501 Column_1502 Column_1503 Column_1504 Column_1505 Column_1506 Column_1507 Column_1508 Column_1509 Column_1510 Column_1511 Column_1512 Column_1513 Column_1514 Column_1515 Column_1516 Column_1517 Column_1518 Column_1519 Column_1520 Column_1521 Column_1522 Column_1523 Column_1524 Column_1525 Column_1526 Column_1527 Column_1528 Column_1529 Column_1530 Column_1531 Column_1532 Column_1533 Column_1534 Column_1535 Column_1536 Column_1537 Column_1538 Column_1539 Column_1540 Column_1541 Column_1542 Column_1543 Column_1544 Column_1545 Column_1546 Column_1547 Column_1548 Column_1549 Column_1550 Column_1551 Column_1552 Column_1553 Column_1554 Column_1555 Column_1556 Column_1557 Column_1558 Column_1559 Column_1560 Column_1561 Column_1562 Column_1563 Column_1564 Column_1565 Column_1566 Column_1567 Column_1568 Column_1569 Column_1570 Column_1571 Column_1572 Column_1573 Column_1574 Column_1575 Column_1576 Column_1577 Column_1578 Column_1579 Column_1580 Column_1581 Column_1582 Column_1583 Column_1584 Column_1585 Column_1586 Column_1587 Column_1588 Column_1589 Column_1590 Column_1591 Column_1592 Column_1593 Column_1594 Column_1595 Column_1596 Column_1597 Column_1598 Column_1599 Column_1600 Column_1601 Column_1602 Column_1603 Column_1604 Column_1605 Column_1606 Column_1607 Column_1608 Column_1609 Column_1610 Column_1611 Column_1612 Column_1613 Column_1614 Column_1615 Column_1616 Column_1617 Column_1618 Column_1619 Column_1620 Column_1621 Column_1622 Column_1623 Column_1624 Column_1625 Column_1626 Column_1627 Column_1628 Column_1629 Column_1630 Column_1631 Column_1632 Column_1633 Column_1634 Column_1635 Column_1636 Column_1637 Column_1638 Column_1639 Column_1640 Column_1641 Column_1642 Column_1643 Column_1644 Column_1645 Column_1646 Column_1647 Column_1648 Column_1649 Column_1650 Column_1651 Column_1652 Column_1653 Column_1654 Column_1655 Column_1656 Column_1657 Column_1658 Column_1659 Column_1660 Column_1661 Column_1662 Column_1663 Column_1664 Column_1665 Column_1666 Column_1667 Column_1668 Column_1669 Column_1670 Column_1671 Column_1672 Column_1673 Column_1674 Column_1675 Column_1676 Column_1677 Column_1678 Column_1679 Column_1680 Column_1681 Column_1682 Column_1683 Column_1684 Column_1685 Column_1686 Column_1687 Column_1688 Column_1689 Column_1690 Column_1691 Column_1692 Column_1693 Column_1694 Column_1695 Column_1696 Column_1697 Column_1698 Column_1699 Column_1700 Column_1701 Column_1702 Column_1703 Column_1704 Column_1705 Column_1706 Column_1707 Column_1708 Column_1709 Column_1710 Column_1711 Column_1712 Column_1713 Column_1714 Column_1715 Column_1716 Column_1717 Column_1718 Column_1719 Column_1720 Column_1721 Column_1722 Column_1723 Column_1724 Column_1725 Column_1726 Column_1727 Column_1728 Column_1729 Column_1730 Column_1731 Column_1732 Column_1733 Column_1734 Column_1735 Column_1736 Column_1737 Column_1738 Column_1739 Column_1740 Column_1741 Column_1742 Column_1743 Column_1744 Column_1745 Column_1746 Column_1747 Column_1748 Column_1749 Column_1750 Column_1751 Column_1752 Column_1753 Column_1754 Column_1755 Column_1756 Column_1757 Column_1758 Column_1759 Column_1760 Column_1761 Column_1762 Column_1763 Column_1764 Column_1765 Column_1766 Column_1767 Column_1768 Column_1769 Column_1770 Column_1771 Column_1772 Column_1773 Column_1774 Column_1775 Column_1776 Column_1777 Column_1778 Column_1779 Column_1780 Column_1781 Column_1782 Column_1783 Column_1784 Column_1785 Column_1786 Column_1787 Column_1788 Column_1789 Column_1790 Column_1791 Column_1792 Column_1793 Column_1794 Column_1795 Column_1796 Column_1797 Column_1798 Column_1799 Column_1800 Column_1801 Column_1802 Column_1803 Column_1804 Column_1805 Column_1806 Column_1807 Column_1808 Column_1809 Column_1810 Column_1811 Column_1812 Column_1813 Column_1814 Column_1815 Column_1816 Column_1817 Column_1818 Column_1819 Column_1820 Column_1821 Column_1822 Column_1823 Column_1824 Column_1825 Column_1826 Column_1827 Column_1828 Column_1829 Column_1830 Column_1831 Column_1832 Column_1833 Column_1834 Column_1835 Column_1836 Column_1837 Column_1838 Column_1839 Column_1840 Column_1841 Column_1842 Column_1843 Column_1844 Column_1845 Column_1846 Column_1847 Column_1848 Column_1849 Column_1850 Column_1851 Column_1852 Column_1853 Column_1854 Column_1855 Column_1856 Column_1857 Column_1858 Column_1859 Column_1860 Column_1861 Column_1862 Column_1863 Column_1864 Column_1865 Column_1866 Column_1867 Column_1868 Column_1869 Column_1870 Column_1871 Column_1872 Column_1873 Column_1874 Column_1875 Column_1876 Column_1877 Column_1878 Column_1879 Column_1880 Column_1881 Column_1882 Column_1883 Column_1884 Column_1885 Column_1886 Column_1887 Column_1888 Column_1889 Column_1890 Column_1891 Column_1892 Column_1893 Column_1894 Column_1895 Column_1896 Column_1897 Column_1898 Column_1899 Column_1900 Column_1901 Column_1902 Column_1903 Column_1904 Column_1905 Column_1906 Column_1907 Column_1908 Column_1909 Column_1910 Column_1911 Column_1912 Column_1913 Column_1914 Column_1915 Column_1916 Column_1917 Column_1918 Column_1919 Column_1920 Column_1921 Column_1922 Column_1923 Column_1924 Column_1925 Column_1926 Column_1927 Column_1928 Column_1929 Column_1930 Column_1931 Column_1932 Column_1933 Column_1934 Column_1935 Column_1936 Column_1937 Column_1938 Column_1939 Column_1940 Column_1941 Column_1942 Column_1943 Column_1944 Column_1945 Column_1946 Column_1947 Column_1948 Column_1949 Column_1950 Column_1951 Column_1952 Column_1953 Column_1954 Column_1955 Column_1956 Column_1957 Column_1958 Column_1959 Column_1960 Column_1961 Column_1962 Column_1963 Column_1964 Column_1965 Column_1966 Column_1967 Column_1968 Column_1969 Column_1970 Column_1971 Column_1972 Column_1973 Column_1974 Column_1975 Column_1976 Column_1977 Column_1978 Column_1979 Column_1980 Column_1981 Column_1982 Column_1983 Column_1984 Column_1985 Column_1986 Column_1987 Column_1988 Column_1989 Column_1990 Column_1991 Column_1992 Column_1993 Column_1994 Column_1995 Column_1996 Column_1997 Column_1998 Column_1999 Column_2000 Column_2001 Column_2002 Column_2003 Column_2004 Column_2005 Column_2006 Column_2007 Column_2008 Column_2009 Column_2010 Column_2011 Column_2012 Column_2013 Column_2014 Column_2015 Column_2016 Column_2017 Column_2018 Column_2019 Column_2020 Column_2021 Column_2022 Column_2023 Column_2024 Column_2025 Column_2026 Column_2027 Column_2028 Column_2029 Column_2030 Column_2031 Column_2032 Column_2033 Column_2034 Column_2035 Column_2036 Column_2037 Column_2038 Column_2039 Column_2040 Column_2041 Column_2042 Column_2043 Column_2044 Column_2045 Column_2046 Column_2047 Column_2048 Column_2049 Column_2050 Column_2051 Column_2052 Column_2053 Column_2054 Column_2055 Column_2056 Column_2057 Column_2058 Column_2059 Column_2060 Column_2061 Column_2062 Column_2063 Column_2064 Column_2065 Column_2066 Column_2067 Column_2068 Column_2069 Column_2070 Column_2071 Column_2072 Column_2073 Column_2074 Column_2075 Column_2076 Column_2077 Column_2078 Column_2079 Column_2080 Column_2081 Column_2082 Column_2083 Column_2084 Column_2085 Column_2086 Column_2087 Column_2088 Column_2089 Column_2090 Column_2091 Column_2092 Column_2093 Column_2094 Column_2095 Column_2096 Column_2097 Column_2098 Column_2099 Column_2100 Column_2101 Column_2102 Column_2103 Column_2104 Column_2105 Column_2106 Column_2107 Column_2108 Column_2109 Column_2110 Column_2111 Column_2112 Column_2113 Column_2114 Column_2115 Column_2116 Column_2117 Column_2118 Column_2119 Column_2120 Column_2121 Column_2122 Column_2123 Column_2124 Column_2125 Column_2126 Column_2127 Column_2128 Column_2129 Column_2130 Column_2131 Column_2132 Column_2133 Column_2134 Column_2135 Column_2136 Column_2137 Column_2138 Column_2139 Column_2140 Column_2141 Column_2142 Column_2143 Column_2144 Column_2145 Column_2146 Column_2147 Column_2148 Column_2149 Column_2150 Column_2151 Column_2152 Column_2153 Column_2154 Column_2155 Column_2156 Column_2157 Column_2158 Column_2159 Column_2160 Column_2161 Column_2162 Column_2163 Column_2164 Column_2165 Column_2166 Column_2167 Column_2168 Column_2169 Column_2170 Column_2171 Column_2172 Column_2173 Column_2174 Column_2175 Column_2176 Column_2177 Column_2178 Column_2179 Column_2180 Column_2181 Column_2182 Column_2183 Column_2184 Column_2185 Column_2186 Column_2187 Column_2188 Column_2189 Column_2190 Column_2191 Column_2192 Column_2193 Column_2194 Column_2195 Column_2196 Column_2197 Column_2198 Column_2199 Column_2200 Column_2201 Column_2202 Column_2203 Column_2204 Column_2205 Column_2206 Column_2207 Column_2208 Column_2209 Column_2210 Column_2211 Column_2212 Column_2213 Column_2214 Column_2215 Column_2216 Column_2217 Column_2218 Column_2219 Column_2220 Column_2221 Column_2222 Column_2223 Column_2224 Column_2225 Column_2226 Column_2227 Column_2228 Column_2229 Column_2230 Column_2231 Column_2232 Column_2233 Column_2234 Column_2235 Column_2236 Column_2237 Column_2238 Column_2239 Column_2240 Column_2241 Column_2242 Column_2243 Column_2244 Column_2245 Column_2246 Column_2247 Column_2248 Column_2249 Column_2250 Column_2251 Column_2252 Column_2253 Column_2254 Column_2255 Column_2256 Column_2257 Column_2258 Column_2259 Column_2260 Column_2261 Column_2262 Column_2263 Column_2264 Column_2265 Column_2266 Column_2267 Column_2268 Column_2269 Column_2270 Column_2271 Column_2272 Column_2273 Column_2274 Column_2275 Column_2276 Column_2277 Column_2278 Column_2279 Column_2280 Column_2281 Column_2282 Column_2283 Column_2284 Column_2285 Column_2286 Column_2287 Column_2288 Column_2289 Column_2290 Column_2291 Column_2292 Column_2293 Column_2294 Column_2295 Column_2296 Column_2297 Column_2298 Column_2299 Column_2300 Column_2301 Column_2302 Column_2303 Column_2304 Column_2305 Column_2306 Column_2307 Column_2308 Column_2309 Column_2310 Column_2311 Column_2312 Column_2313 Column_2314 Column_2315 Column_2316 Column_2317 Column_2318 Column_2319 Column_2320 Column_2321 Column_2322 Column_2323 Column_2324 Column_2325 Column_2326 Column_2327 Column_2328 Column_2329 Column_2330 Column_2331 Column_2332 Column_2333 Column_2334 Column_2335 Column_2336 Column_2337 Column_2338 Column_2339 Column_2340 Column_2341 Column_2342 Column_2343 Column_2344 Column_2345 Column_2346 Column_2347 Column_2348 Column_2349 Column_2350 Column_2351 Column_2352 Column_2353 Column_2354 Column_2355 Column_2356 Column_2357 Column_2358 Column_2359 Column_2360 Column_2361 Column_2362 Column_2363 Column_2364 Column_2365 Column_2366 Column_2367 Column_2368 Column_2369 Column_2370 Column_2371 Column_2372 Column_2373 Column_2374 Column_2375 Column_2376 Column_2377 Column_2378 Column_2379 Column_2380
feature_infos=[0.0001041399737005122:0.99986469745635986] [1.4446191016759258e-06:0.58197718858718872] [0:0.63884550333023071] [0:0.48217573761940002] [0:0.38687571883201599] [0:0.94969630241394043] [0:0.36141759157180786] [0:0.3532252311706543] [0:0.74780654907226562] [0:0.31520918011665344] [0:0.45144078135490417] [3.8146984593367961e-07:0.39196595549583435] [0:0.37279576063156128] [0:0.41947534680366516] [0:0.52485156059265137] [0:0.2343047708272934] [1.2969974250154337e-06:0.38103899359703064] [0:0.19162434339523315] [0:0.29194363951683044] [0:0.92108798027038574] [0:0.58191400766372681] [0:0.3649442195892334] [0:0.12745858728885651] [0:0.38051080703735352] [0:0.30867657065391541] [0:0.29381686449050903] [0:0.34282296895980835] [0:0.44395816326141357] [0:0.20477604866027832] [0:0.20384292304515839] [0:0.44742614030838013] [0:0.33884048461914062] [0:0.59520763158798218] [0:0.66448420286178589] [0:0.21614664793014526] [0:0.50258880853652954] [0:0.23190057277679443] [0:0.45412248373031616] [0:0.13542607426643372] [0:0.35568869113922119] [0:0.43265238404273987] [0:0.18613377213478088] [0:0.32844692468643188] [0:0.40341839194297791] [0:0.27680376172065735] [0:0.16632489860057831] [0:0.98943996429443359] [0:0.28682360053062439] [0:0.86768001317977905] [0:0.37429711222648621] [0:0.33159205317497253] [0:0.58692747354507446] [0:0.99839377403259277] [0:0.21101528406143188] [0:0.24869462847709656] [0:0.18055808544158936] [0:0.42196553945541382] [0:0.33159869909286499] [0:0.23693647980690002] [0:0.34377971291542053] [0:0.16552777588367462] [0:0.11417721211910248] [0:0.17976221442222595] [0:0.41843938827514648] [0:0.47387236356735229] [0:0.59518569707870483] [0:0.35457012057304382] [0:0.16284926235675812] [0:0.27900242805480957] [4.8153970055864193e-07:0.16647973656654358] [0:0.52700048685073853] [0:0.11944014579057693] [0:0.24671435356140137] [0:0.40877598524093628] [0:0.16503970324993134] [0:0.31608518958091736] [0:0.33156940340995789] [4.196168390535604e-07:0.42289695143699646] [0:0.23961380124092102] [0:0.20774535834789276] [4.8153970055864193e-07:0.24128533899784088] [0:0.3317875862121582] [0:0.21975192427635193] [0:0.19303350150585175] [0:0.24096390604972839] [0:0.69947487115859985] [0:0.15378557145595551] [0:0.16579253971576691] [0:0.95789724588394165] [0:0.36348474025726318] [2.6702889499574667e-07:0.16579541563987732] [0:0.18247079849243164] [0:0.13938170671463013] [0:0.14892159402370453] [0:0.20272563397884369] [0:0.2042919248342514] [0:0.14881178736686707] [0:0.7894434928894043] [0:0.17886963486671448] [0:0.7775842547416687] [0:0.52908366918563843] [0:0.16582112014293671] [0:0.57603102922439575] [0:0.16647948324680328] [0:0.27033388614654541] [0:0.16581124067306519] [0:0.26991626620292664] [0:0.28564453125] [0:0.17936992645263672] [0:0.16580294072628021] [0:0.25040555000305176] [0:0.20932874083518982] [0:0.18847194314002991] [0:0.70199364423751831] [0:0.26992693543434143] [0:0.32833421230316162] [0:0.22776259481906891] [0:0.28185224533081055] [0:0.16580082476139069] [0:0.33178141713142395] [0:0.19493761658668518] [0:0.3664700984954834] [0:0.90581244230270386] [0:0.20049969851970673] [0:0.17285972833633423] [0:0.093192458152770996] [0:0.16817565262317657] [0:0.25994193553924561] [0:0.54682600498199463] [0:0.20929688215255737] [0:0.1873132586479187] [0:0.18057030439376831] [0:0.26945549249649048] [0:0.68637317419052124] [0:0.12558531761169434] [0:0.10766930878162384] [0:0.4285266101360321] [0:0.14208684861660004] [0:0.19635052978992462] [0:0.19287508726119995] [0:0.23959662020206451] [0:0.15020179748535156] [0:0.26927763223648071] [0:0.13685359060764313] [0:0.99391007423400879] [0:0.12240844964981079] [0:0.12213224172592163] [0:0.55119401216506958] [0:0.16500751674175262] [0:0.13880954682826996] [0:0.12497397512197495] [0:0.11551990360021591] [0:0.17300906777381897] [0:0.325123131275177] [0:0.10512011498212814] [0:0.16305804252624512] [0:0.16604861617088318] [0:0.11262169480323792] [0:0.23963372409343719] [0:0.16925761103630066] [0:0.17936280369758606] [0:0.19665424525737762] [0:0.14643190801143646] [0:0.17675791680812836] [0:0.38617244362831116] [0:0.14207538962364197] [0:0.18860332667827606] [0:0.49245971441268921] [0:0.17958252131938934] [0:0.11630889028310776] [0:0.24042968451976776] [0:0.17083679139614105] [0:0.18846668303012848] [0:0.14225403964519501] [0:0.13588276505470276] [0:0.11905449628829956] [0:0.14001898467540741] [0:0.23490378260612488] [0:0.15826050937175751] [0:0.1333744078874588] [0:0.2217848002910614] [0:0.15297387540340424] [0:0.24661992490291595] [0:0.25636479258537292] [0:0.3128204345703125] [0:0.16685114800930023] [0:0.2626652717590332] [0:0.2134091705083847] [0:0.17127317190170288] [0:0.21557153761386871] [0:0.39064213633537292] [0:0.53447604179382324] [0:0.91890943050384521] [0:0.19946326315402985] [0:0.26866185665130615] [0:0.60315805673599243] [0:0.13499091565608978] [0:0.18126185238361359] [0:0.18329349160194397] [0:0.38767534494400024] [0:0.12792216241359711] [0:0.12480761110782623] [0:0.21301902830600739] [0:0.16003012657165527] [0:0.89058727025985718] [0:0.20180463790893555] [0:0.19983762502670288] [0:0.37594622373580933] [0:0.2766459584236145] [0:0.20890165865421295] [0:0.21188616752624512] [0:0.22161310911178589] [0:0.13520394265651703] [0:0.34819534420967102] [0:0.10111860930919647] [0:0.56854373216629028] [0:0.17806324362754822] [0:0.325123131275177] [0:0.87856632471084595] [0:0.42092779278755188] [0:0.18117187917232513] [0:0.22046111524105072] [0:0.22444495558738708] [0:0.18994912505149841] [0:0.60479509830474854] [0:0.26558339595794678] [0:0.22260132431983948] [0:0.36717653274536133] [0:0.45640900731086731] [0:0.21213360130786896] [0:0.13983792066574097] [0:0.18699957430362701] [0:0.26142284274101257] [0:0.24974526464939117] [0:0.38239708542823792] [0:0.19268828630447388] [0:0.16150666773319244] [0:0.35607978701591492] [0:0.26087939739227295] [0:0.27280086278915405] [0:0.50144034624099731] [0:0.24672234058380127] [0:0.78041744232177734] [0:0.28524574637413025] [0:0.17062802612781525] [0:0.43178808689117432] [0:0.3119787871837616] [0:0.29387205839157104] [0:0.47829484939575195] [0:0.28226533532142639] [0:0.50080657005310059] [0:0.3312225341796875] [0:0.37707346677780151] [0:0.61397767066955566] [0:0.47578254342079163] [0:0.9821779727935791] [0:0.99976569414138794] [0:0.92079854011535645] [0:0.98943549394607544] [0:0.99829268455505371] [0:0.35200700163841248] [0:0.95738333463668823] [0:0.65613871812820435] [0:0.90551042556762695] [0:0.58333331346511841] [0:0.99390244483947754] [0:0.21739129722118378] [0:0.32755404710769653] [0:0.9178764820098877] [0:0.31687068939208984] [0:0.54516357183456421] [0:0.98086285591125488] [0:0.9445839524269104] [0:0.3189719021320343] [0:0.1224338561296463] [0:0.4176870584487915] [0:0.079715006053447723] [0:0.027766082435846329] [0:0.36395102739334106] [0:0.13056984543800354] [0:0.080118812620639801] [0:0.036221928894519806] [0:0.3350389301776886] [0:0.042374473065137863] [0:0.31032088398933411] [0:0.1194646880030632] [0:0.18230046331882477] [0:0.5368766188621521] [0:0.94301468133926392] [0:0.22443799674510956] [0:0.27877986431121826] [0:0.81434768438339233] [0:0.11218567192554474] [0:0.28508719801902771] [0:0.15419352054595947] [0:0.15740722417831421] [0:0.036348637193441391] [0:0.042281363159418106] [0:0.05286417156457901] [0:0.048533845692873001] [0:0.125] [0:0.87784415483474731] [0:0.13269565999507904] [0:0.33956733345985413] [0:0.92317706346511841] [0:0.37688848376274109] [0:0.6559377908706665] [0:0.66590791940689087] [0:0.34884047508239746] [0:0.36560964584350586] [0:0.40480917692184448] [0:0.66354119777679443] [0:0.33426842093467712] [0:0.23705938458442688] [0:0.2015371173620224] [0:0.23714746534824371] [0:0.50546801090240479] [0:0.27745005488395691] [0:0.45994794368743896] [0:0.62151587009429932] [0:0.875] [0:0.2781224250793457] [0:0.26155990362167358] [0:0.74605774879455566] [0:0.37194332480430603] [0:0.22428987920284271] [0:0.32818487286567688] [0:0.42504236102104187] [0:0.27808913588523865] [0:0.10027386993169785] [0:0.17154569923877716] [0:0.073673665523529053] [0:0.53429234027862549] [0:0.42046719789505005] [0:0.26093399524688721] [0:0.69858729839324951] [0:0.82942706346511841] [0:0.29927006363868713] [0:0.28482076525688171] [0:0.52034181356430054] [0:0.53346192836761475] [0:0.39615201950073242] [0:0.33160722255706787] [0:0.33159276843070984] [0:0.24298229813575745] [0:0.31074574589729309] [0:0.37696915864944458] [0:0.24230813980102539] [0:0.49181640148162842] [0:0.24045552313327789] [0:0.13992471992969513] [0:0.37931203842163086] [0:0.78432995080947876] [0:0.42949143052101135] [0:0.36698353290557861] [0:0.58122861385345459] [0:0.46423864364624023] [0:0.39905038475990295] [0:0.39712449908256531] [0:0.26273602247238159] [0:0.38571429252624512] [0:0.3249337375164032] [0:0.22086438536643982] [0:0.25628799200057983] [0:0.34942775964736938] [0:0.32493460178375244] [0:0.3249380886554718] [0:0.32590553164482117] [0:0.73486328125] [0:0.24165260791778564] [0:0.408124178647995] [0:0.49714377522468567] [0:0.33158710598945618] [0:0.49643343687057495] [0:0.43703705072402954] [0:0.21046973764896393] [0:0.15142229199409485] [0:0.2825520932674408] [0:0.41575056314468384] [0:0.1940569132566452] [0:0.42977052927017212] [0:0.32827383279800415] [0:0.1873982697725296] [0:0.30467882752418518] [0:0.673583984375] [0:0.28471565246582031] [0:0.39506500959396362] [0:0.32340550422668457] [0:0.30121815204620361] [0:0.27036458253860474] [0:0.36929148435592651] [0:0.20996308326721191] [0:0.26584106683731079] [0:0.23943662643432617] [0:0.43690204620361328] [0:0.18348488211631775] [0:0.17442029714584351] [0:0.20569565892219543] [0:0.4510498046875] [0:0.27134180068969727] [0:0.64111328125] [0:0.19881294667720795] [0:0.3018624484539032] [0:0.30853646993637085] [0:0.30480742454528809] [0:0.33158445358276367] [0:0.34642046689987183] [0:0.21305447816848755] [0:0.20355710387229919] [0:0.10609080642461777] [0:0.18857020139694214] [0:0.156982421875] [0:0.28905582427978516] [0:0.18972910940647125] [0:0.16537937521934509] [0:0.25615426898002625] [0:0.5556640625] [0:0.2721819281578064] [0:0.21446384489536285] [0:0.19851832091808319] [0:0.21484375] [0:0.1547473669052124] [0:0.2376708984375] [0:0.1596883088350296] [0:0.14954793453216553] [0:0.12669819593429565] [0:0.13144925236701965] [0:0.15055231750011444] [0:0.18092840909957886] [0:0.16760824620723724] [0:0.2300579696893692] [0:0.20260514318943024] [0:0.51318359375] [0:0.27989038825035095] [0:0.23104366660118103] [0:0.44911107420921326] [0:0.21533203125] [0:0.15142962336540222] [0:0.24052734673023224] [0:0.17959879338741302] [0:0.21417798101902008] [0:0.18013831973075867] [0:0.33200684189796448] [0:0.1452169269323349] [0:0.19676339626312256] [0:0.26552167534828186] [0:0.11582072079181671] [0:0.4626069962978363] [0:0.45263671875] [0:0.13877841830253601] [0:0.15907023847103119] [0:0.33523693680763245] [0:0.196044921875] [0:0.13671875] [0:0.25595998764038086] [0:0.17008496820926666] [0:0.23969629406929016] [0:0.24240879714488983] [0:0.1441650390625] [0:0.21604883670806885] [0:0.31439656019210815] [0:0.15430545806884766] [0:0.16529117524623871] [0:0.35798487067222595] [0:0.35693359375] [0:0.27357986569404602] [0:0.29160183668136597] [0:0.24578230082988739] [0:0.18807116150856018] [0:0.18543092906475067] [0:0.1705702543258667] [0:0.13514874875545502] [0:0.161224365234375] [0:0.17917996644973755] [0:0.23630914092063904] [0:0.12519285082817078] [0:0.23438055813312531] [0:0.095394119620323181] [0:0.18598122894763947] [0:0.3290325403213501] [0:0.29683861136436462] [0:0.15537437796592712] [0:0.22671088576316833] [0:0.1803126186132431] [0:0.2055511474609375] [0:0.12863574922084808] [0:0.20671218633651733] [0:0.15373478829860687] [0:0.1583658903837204] [0:0.13037712872028351] [0:0.15124136209487915] [0:0.23476012051105499] [0:0.29174789786338806] [0:0.13163487613201141] [0:0.29343444108963013] [0:0.17263349890708923] [0:0.20478332042694092] [0:0.13462181389331818] [0:0.13748568296432495] [0:0.16232688724994659] [0:0.14026917517185211] [0:0.11609968543052673] [0:0.12476781010627747] [0:0.13432608544826508] [0:0.13304327428340912] [0:0.10985801368951797] [0:0.11937318742275238] [0:0.15909017622470856] [0:0.13502544164657593] [0:0.134731724858284] [0:0.12518833577632904] [0:0.18587692081928253] [1:2487230] [5:207990.921875] [5:50346872] [0:0.98097634315490723] [0:0.89032119512557983] [0:0.73864555358886719] [0:0.92125475406646729] [0:0.92907601594924927] [0:0.93523102998733521] [0:0.51105397939682007] [0:0.87022662162780762] [0:0.53153479099273682] [0:0.8791472315788269] [0:0.62412643432617188] [0:0.89759737253189087] [0:0.65373653173446655] [0:0.52583998441696167] [0:0.99912947416305542] [0:0.54079639911651611] [0:0.99120205640792847] [0:0.66839146614074707] [0:0.81635409593582153] [0:0.8855597972869873] [0:0.99994230270385742] [0:0.49571594595909119] [0:0.75406646728515625] [0:0.61392629146575928] [0:0.96936947107315063] [0:0.52635020017623901] [0:0.88626712560653687] [0:0.60437542200088501] [0:0.61841070652008057] [0:0.80621623992919922] [0:0.3921457827091217] [0:0.97819668054580688] [0:0.94689005613327026] [0:0.70947688817977905] [0:0.8166700005531311] [0:0.47037419676780701] [0:0.82750093936920166] [0:0.78142672777175903] [0:0.96199393272399902] [0:0.51956886053085327] [0:0.74380141496658325] [0:0.89945554733276367] [0:0.40185016393661499] [0:0.85703235864639282] [0:0.88808101415634155] [0:0.94748818874359131] [0:0.3993975818157196] [0:0.84183359146118164] [0:0.52167117595672607] [0:0.39851281046867371] [0:0.81145548820495605] [0:0.62157249450683594] [0:0.93545138835906982] [0:0.95048367977142334] [0:0.61409848928451538] [0:0.4358099102973938] [0:0.99834603071212769] [0:0.89257305860519409] [0:0.73083144426345825] [0:0.68704259395599365] [0:0.65772396326065063] [0:0.55585289001464844] [0:0.91299480199813843] [0:0.81680554151535034] [0:0.67990517616271973] [0:0.98582017421722412] [0:0.84656572341918945] [0:0.98665362596511841] [0:0.7892606258392334] [0:0.72118526697158813] [0:0.86510264873504639] [0:0.54528379440307617] [0:0.50742524862289429] [0:0.5777660608291626] [0:0.43639227747917175] [0:0.73726129531860352] [0:0.36011740565299988] [0:0.69908982515335083] [0:0.93341636657714844] [0:0.58836716413497925] [0:0.87140268087387085] [0:0.98053187131881714] [0:0.5659063458442688] [0:0.86578327417373657] [0:0.88930022716522217] [0:0.75] [0:0.75885522365570068] [0:0.95614033937454224] [0:0.50725466012954712] [0:0.96878480911254883] [0:0.9985424280166626] [0:0.87927353382110596] [0:0.48288020491600037] [0:0.37364843487739563] [0:0.56314224004745483] [0:0.84983235597610474] [0.001253837370313704:6.5849494934082031] [0:56442] [0:9409] [0:2492] [1:7638] [234:319288640] [512:4278288384] [0:1] [0:51640] [0:21344] [0:1] [0:1] [0:1] [0:1] [0:188837] [0:4294967296] none [-1:1] [0:1] [0:1] [-1:0] [0:1] [-1:1] [-1:0] none none [-1:0] none [-1:0] [-1:3] [-2:0] [-1:0] [-1:1] [0:1] [-1:1] [0:1] [0:1] none [-1:0] none [-1:0] none [-1:1] [-1:1] [-1:1] [-1:0] [0:1] [-2:1] none [-1:2] [-1:0] [-1:0] none [-1:0] [-1:0] none none [-1:0] none none [0:1] none none none none none [0:62679] [0:62240] [0:255] [0:255] [0:65535] [0:37377] [0:57860] [0:65280] [0:4294967296] [0:285213184] [0:2073741824] [0:167] [0:84] [0:20] [0:138] [0:93] [-10534568:578713600] [-32366592:23533568] [-12583424:9351680] [-9470239:12308992] [-6383095:8284672] [-18087936:4563456] [-22522368:40566784] [-57328640:2100224] [-12293120:15570432] [-7603886:7462912] [-118620160:7147008] [-25633552:4927488] [-27253760:7776768] [-5589504:12680192] [-5459968:2415919104] [-4726272:6324736] [-4716544:4278161408] [-12294144:14340096] [-7492608:11691520] [-10516480:21889024] [-4278190080:7135744] [-7144448:7036928] [-10873344:27885568] [-18161664:25747456] [-10381824:25247232] [-21900800:6568448] [-3304960:51727872] [-16455168:3450880] [-47060992:9424896] [-12778496:24613376] [-1794560:6606848] [-67571712:12646912] [-39554048:9736192] [-6083072:58315264] [-2939904:28394408] [-14321664:894104064] [-6611849:2508288] [-12287488:10431488] [-31862784:13485568] [-8187904:3089408] [-10008576:4816896] [-184549376:7135744] [-9421824:5757952] [-5582848:610186752] [-12285952:5153792] [-34184192:32269688] [-11404800:15880192] [-18126336:14588928] [-5412352:6888960] [-10756096:3433984] [-7.992271900177002:77.728179931640625] [-15.930702209472656:7.9987587928771973] [-15.571069717407227:39.950992584228516] [-36.078113555908203:15.389224052429199] [-15.95733642578125:21.131023406982422] [-24.490167617797852:7.9997458457946777] [-232.30552673339844:7.9996294975280762] [-22.11688232421875:7.9998631477355957] [-14.815167427062988:14.231996536254883] [-13.934165000915527:19.220184326171875] [-7.9999895095825195:131.6846923828125] [-56.62127685546875:13.462446212768555] [-11.006683349609375:15.306022644042969] [-10.947208404541016:12.107828140258789] [-7.9998159408569336:73.680000305175781] [-23.332941055297852:37.240463256835938] [-13.325701713562012:31.423244476318359] [-15.943629264831543:15.924150466918945] [-15.819186210632324:10.214162826538086] [-654.64990234375:15.043258666992188] [-15.76881217956543:7.9996275901794434] [-15.998476028442383:31.622760772705078] [-18.665929794311523:15.90846061706543] [-15.921699523925781:36.299880981445312] [-15.675150871276855:19.289134979248047] [-25.559585571289062:9.6325016021728516] [-23.762502670288086:19.945821762084961] [-41.912540435791016:7.9996852874755859] [-15.84527587890625:11.771100997924805] [-9.7116909027099609:7.9996228218078613] [-7.9996347427368164:15.365236282348633] [-14.565211296081543:54.932960510253906] [-97.404067993164062:7.9999403953552246] [-12.08528995513916:15.953179359436035] [-15.977595329284668:15.266731262207031] [-14.114391326904297:9.3867120742797852] [-15.154199600219727:16.752660751342773] [-18.435129165649414:36.433982849121094] [-32.106014251708984:22.700555801391602] [-15.92216968536377:15.848713874816895] [-63.245353698730469:14.446666717529297] [-450.80062866210938:31.991605758666992] [-21.125900268554688:15.930113792419434] [-12.626927375793457:94.924537658691406] [-7.9996066093444824:15.927393913269043] [-66.06695556640625:15.502218246459961] [-10.96522045135498:29.232700347900391] [-15.920066833496094:20.398822784423828] [-13.171438217163086:8.0977945327758789] [-15.433562278747559:7.9997148513793945] [-10543104:746475328] [-32366592:23535616] [-730857472:9351248] [-8075966:12393124] [-107597824:1631782912] [-594743296:11678976] [-22522028:40566392] [-57331712:9228288] [-12292976:12387994] [-17950800:7462912] [-118617600:7147520] [-31326208:12013568] [-26157056:7776544] [-22351872:24989696] [-6170258:75828944] [-6803968:9210312] [-12656640:268436576] [-12293712:36073472] [-7492384:11691184] [-15519744:21889024] [-2034369536:12393124] [-12398592:101711872] [-24952832:207818752] [-18160496:44436608] [-10381540:26030580] [-21902608:7228554] [-6238382:51727832] [-19927040:16179200] [-47063040:9424784] [-12779520:600834048] [-6156816:9924608] [-29065216:37691392] [-734014848:9714624] [-15921152:58314768] [-3559424:400588800] [-71553024:894107648] [-6705152:32138328] [-12287184:77676544] [-50103120:13485100] [-137736192:175412736] [-12252248:21291008] [-536874048:3780608] [-9424896:110410024] [-7069604:610189312] [-12285520:13164544] [-34185216:32272384] [-12393124:15876487] [-1634036864:31467936] [-12898304:1951622528] [-9592832:3433872] [-1:1] [-1:1] [-1:1] [-1:1] [-1:1] [-1:1] [-1:1] [-1:1] [-1:1] [-1:1] [-1:1] [-1:1] [-1:1] [-1:1] [-1:1] [-1:1] [-1:1] [-1:1] [-1:1] [-1:1] [-1:1] [-1:1] [-1:1] [-1:1] [-1:1] [-1:1] [-1:1] [-1:1] [-1:1] [-1:1] [-1:1] [-1:1] [-1:1] [-1:1] [-1:1] [-1:1] [-1:1] [-1:1] [-1:1] [-1:1] [-1:1] [-1:1] [-1:1] [-1:1] [-1:1] [-1:1] [-1:1] [-1:1] [-1:1] [-1:1] [0:18] none [-3:0] none [0:8] none none none [0:13] [0:8] [-8:0] none none [-138:0] [0:1] none none none [-1:0] none none [0:14] [-2:10] [-1:138] none [-1:0] none none [0:69] none none none none none [0:1] [-4:1] [0:3] [0:15] none none [0:1] none [0:1] none none [0:14] [0:1] [-69:0] [-10:0] [0:12] [-1:2] [-1:1] [-2:2] [-2:2] [-1:3] [-1:2] [-1:2] [-2:1] [-2:2] [-1:2] [-2:2] [-2:2] [-1:2] [-2:1] [-1:1] [-1:2] [-2:2] [-2:1] [-1:1] [-1:1] [-2:2] [-1:2] [-2:1] [-1:2] [-2:1] [-2:2] [-2:2] [-2:2] [-2:1] [-1:2] [-3:1] [-1:2] [-2:2] [-1:2] [-1:2] [-1:2] [-2:2] [-1:2] [-3:2] [-1:2] [-2:2] [-1:1] [-2:2] [-3:2] [-1:1] [-1:3] [-2:1] [-2:1] [-2:1] [-2:1] [-2:2] [-2:2] [-2:2] [-2:2] [-2:3] [-1:2] [-1:1] [-1:2] [-2:1] [-2:2] [-2:2] [-2:1] [-1:2] [-2:2] [-1:2] [-1:2] [-2:1] [-2:2] [-2:1] [-1:2] [-2:2] [-1:1] [-2:1] [-1:1] [-2:2] [-2:2] [-1:2] [-1:1] [-1:2] [-1:1] [-2:1] [-2:2] [-1:2] [-2:2] [-2:2] [-1:2] [-2:2] [-2:2] [-2:1] [-2:1] [-2:2] [-1:2] [-1:2] [-2:2] [-2:1] [-2:2] [-2:2] [-1:2] [-2:2] [-1:1] [-3:3] [-1:2] [-1:2] [-1:2] [-1:4] [-2:1] [-2:2] [-2:2] [-2:1] [-2:1] [-1:2] [-1:2] [-1:2] [-1:1] [-2:2] [-1:1] [-2:1] [-1:2] [-2:2] [-2:2] [-2:2] [-1:3] [-2:2] [-1:1] [-2:2] [-2:1] [-1:1] [-2:2] [-2:1] [-2:1] [-2:2] [-1:2] [-2:1] [-2:1] [-2:2] [-2:1] [-1:1] [-1:2] [-2:2] [-2:2] [-1:2] [-1:1] [-2:3] [-1:1] [-2:1] [-3:2] [-1:1] [-2:1] [-2:1] [-2:1] [-2:1] [-2:2] [-2:2] [-1:1] [-2:1] [-2:2] [-1:2] [-1:1] [-2:1] [-2:2] [-2:1] [-2:2] [-2:2] [-1:1] [-3:1] [-2:2] [-2:1] [-1:1] [-2:2] [-3:2] [-1:2] [-1:2] [-1:2] [-2:1] [-2:1] [-1:2] [-1:1] [-1:1] [-2:1] [-2:2] [-1:1] [-2:1] [-1:1] [-2:1] [-2:2] [-1:2] [-1:2] [-2:2] [-2:1] [-2:1] [-2:1] [-1:2] [-1:2] [-2:2] [-2:2] [-2:1] [-2:2] [-1:1] [-2:1] [-1:1] [-1:3] [-2:3] [-1:1] [-2:1] [-2:1] [-2:1] [-1:1] [-1:1] [-1:2] [-2:1] [-2:2] [-1:1] [-2:2] [-2:1] [-2:1] [-2:2] [-1:2] [-1:2] [-1:2] [-1:2] [-2:2] [-3:2] [-1:2] [-1:2] [-2:2] [-2:2] [-1:1] [-1:1] [-1:2] [-2:1] [-2:1] [-2:1] [-1:2] [-2:1] [-2:1] [-2:2] [-1:1] [-2:2] [-2:2] [-1:4] [-2:2] [-2:1] [-2:2] [-2:1] [-2:2] [-2:2] [-2:2] [-2:1] [-1:3] [-2:3] [-1:2] [-1:1] [-1:2] [-2:1] [-1:1] [-2:2] [-5:7] [-23:6] [-6:33] [-6:9] [-31:6] [-9:754] [-31:496] [-80:12] [-7:25] [-6:12] [-7:548] [-6:5] [-14:10] [-30:19] [-7:3122] [-7:71] [-13:887] [-7:5] [-19:3738] [-25:8] [-11:32] [-15:21] [-26:10] [-18:5] [-6:6] [-37:2395] [-10:9] [-58:31] [-17:12] [-11:11] [-4:241] [-5:11] [-9:35] [-9:15] [-6:6] [-33:7] [-7:5] [-36:6] [-17:12] [-5:31] [-6:10] [-6:19] [-25:2023] [-7:18] [-6:20] [-3625:33] [-8:5] [-33:16] [-4:17] [-6:12] [-24:56] [-10:8] [-6:16] [-10:11] [-20:11] [-27:6] [-46:9] [-36:11] [-5:6] [-132:7] [-8:18] [-20:6] [-5:6] [-10:11] [-5:9] [-42:9] [-12:5] [-6:7] [-7:303] [-11:16] [-10:6] [-93:62] [-10:22] [-5:9] [-7:31] [-13:42] [-7:52] [-12:5] [-6:7] [-5:6] [-9:1329] [-7:23] [-40:8] [-12:18] [-7:7] [-2511:5] [-50:5] [-4:12] [-411:3569] [-5:28] [-5:28] [-67:7] [-6:50] [-25:6] [-6:10] [-29:5] [-9:17] [-7:48] [-19:4] [-7:9] [-6:7] [-5:20] [-6:27] [-16:6] [-11:346] [-10:7] [-18:8] [-2896:25] [-57:8] [-10:9] [-6:16] [-7:1242] [-5:37] [-29:20] [-4:15] [-7:24] [-58:22] [-12:7] [-8:14] [-9:17] [-1382:9] [-5:434] [-28:8] [-7:19] [-16:20] [-7:8] [-28:5] [-6:8] [-6:12] [-2186:11] [-9:29] [-23:15] [-132:20] [-41:441] [-6:6] [-19:26] [-7:5] [-43:11] [-976:6] [-1385:5] [-9:7] [-8:38] [-7:111] [-15:55] [-19:6] [-122:54] [-415:21] [-14:5] [-13:6] [-13:15] [-26:6] [-8:8] [-7:16] [-11:10] [-46:6] [-54:2794] [-20:12] [-10:10] [-44:12] [-13:6] [-27:10] [-16:7] [-41:61] [-31:20] [-8:361] [-34:12] [-23:368] [-6:51757] [-18:7] [-35:7] [-6:106] [-6:36] [-22:10] [-14:8] [-6:157] [-26:13] [-8:23] [-7:12] [-10:92] [-1244:4] [-6:22] [-8:25] [-3862:60] [-5:6] [-52:8] [-8:7] [-14:249] [-50:14] [-6:21] [-7:23] [-9:11] [-29:9] [-8:132] [-23:3462] [-136:5] [-1835:29] [-6:42] [-12:5] [-13:7] [-15:34] [-8:30] [-52:7] [-14:9] [-8:1302] [-5:38] [-30:25] [-10:5] [-10:16] [-11:6] [-6:407] [-5:13] [-7:197] [-9:26] [-1225:17] [-8:6] [-8:14] [-5:18] [-7:16] [-6:11] [-8:2715] [-26:8] [-10:32] [-10:7] [-12:13] [-12:61] [-8:131] [-17:4133] [-6:1489] [-47:7] [-1604:11] [-56:23] [-7:20] [-7:8] [-25:5] [-40:5] [-9:7] [-453:11] [-6:6] [-13:6] [-11:9] [-5:7] [-5:63] [-63:7] [-799:5] [-8:1259] [-15:5] [-10:36] [-12:5] [-6:9] [-6:23] [-6:11] [-14:38] [-280:19] [-30:6] [-12:7] [-6:11] [-10:10] [-9:13] [-12:2967] [-12:78] [-41:12] [-8:2910] [-15:1128] [-10:9] [-11:20] [-1571:406] [-5:9] [-5:24] [-7:6] [-24:8] [-21098:7] [-8:4] [-17:6] [-28:99] [-8:7] [-8:7] [-6:16] [-7:11] [-6:19] [-9:43] [-22:7] [-31:38] [-22:4] [-7:46] [-6:6] [-6:13] [-8:1782] [-8:5] [-11:14] [-704:13] [-6:36] [-5:8] [-12:9] [-1475:70] [-11:16] [-48:9] [-618:6] [-5:21] [-26:5] [-35:23] [-988:1578] [-9:122] [-19:10] [-43:15] [-19:307] [-5:337] [-7:14] [-30:7] [-13:8] [-6:18] [-60:125] [-18:4] [-5:51] [-7:2660] [-16:10] [-12:13] [-2278:33] [-5389:2697] [-10:27] [-7:9] [-14:39] [-7:22] [-9:8] [-6:5] [-8:9] [-21:7] [-12:4] [-7:10] [-12:36] [-11:6] [-4:44] [-6:6] [-5:41] [-10:57] [-7:37] [-8:5] [-17:18] [-18:6] [-10:8] [-21:6] [-6:34] [-91:32] [-213:21] [-18:6] [-4:36] [-4:20] [-7:6] [-8:9] [-19:8] [-10:65] [-6:12] [-19:5] [-62:9] [-8:23] [-12:41] [-6:62] [-1338:36] [-13:8] [-6:39] [-7:11] [-7:55] [-7:14] [-26:1430] [-9:29] [-10:28] [-6:7] [-14:6] [-6:8] [-12:60] [-8:1084] [-7:6] [-183:14] [-4:11] [-7:69] [-8:21] [-7:461] [-7:5] [-140519:6] [-8:31] [-6:1939] [-37:7] [-8:16] [-9:47] [-5:567] [-10:17] [-26:6] [-19:235] [-4:21] [-1884:18] [-1166:334] [-4:17] [-21:10] [-4016:21] [-28:7] [-22:5] [-7:6] [-22:6] [-2598:27] [-623:36] [-10:46] [-6:6] [-43:6] [-10:8] [-102:16] [-5:8] [-7:29] [-8:6] [-19:6] [-40:10] [-30:9] [-13:38] [-10:39] [-16:6] [-31:10] [-5:15] [-7:8] [-3509:5] [-7:12] [-27:10] [-26:9] [-6:8] [-1526:8] [-6:38] [-12:9] [-9:7] [-167:5] [-30:7] [-18:8] [-37:17] [-7:35] [-2550:27] [-709:15] [-7:19] [-8:25] [-136:12] [-10:969] [-6:10] [-956:16] [-1574:21] [-11:10] [-8:18] [-6:35] [-10:390] [-6:11] [-7:6] [-7:10] [-41:96] [-29:9] [-7:6] [-33:2767] [-5:61] [-6:12] [-16:8] [-5:25] [-25:6] [-1137:6] [-20:9] [-7:9] [-8:16] [-6:12] [-188:23] [-29:5] [-7:18] [-22:7] [-9:15] [-1751:43] [-8:14] [-9:1001] [-5:32] [-5:5] [-7:34] [-7:242] [-9:21] [-13:12] [-34:6] [-8:10] [-24:13] [-2770:23] [-6:1562] [-8:5] [-5:66] [-5:12] [-9:11] [-13:8] [-30:5] [-33:6] [-180:22] [-333:14] [-17:6] [-42:11] [-22:379] [-29:15] [-12:16] [-5:5] [-67:6] [-7:24] [-40:10] [-38:22] [-10:6] [-6:11] [-3080:8] [-10:6] [-7:18] [-3951:16] [-3410:23] [-6:7] [-8:17] [-20:7] [-18:14] [-17:6] [-5:45] [-5:23] [-14:5] [-16:8] [-10:724] [-13:37] [-8:8] [-12:5] [-8:10] [-418:11] [-13:8] [-13:12] [-27:9] [-165:8] [-7:10] [-22:51] [-5:11] [-101:747] [-6:68] [-18:8] [-7:7] [-7:5] [-22:5] [-34:8] [-7:7] [-18:9] [-6:18] [-4:10] [-17:47] [-5:33] [-6:22] [-53:5] [-3172:170] [-6:23] [-438:18] [-5:25] [-8:11] [-6:5] [-6:9] [-6:28] [-34:5] [-4:38] [-13:8] [-87:5] [-5:53] [-8:8] [-15:13] [-9:6] [-295:8] [-11:5] [-14:8] [-8:8] [-9:1291] [-586:8] [-5:6] [-24:23] [-8:16] [-19:508] [-7:22] [-28:8] [-34:5] [-6:7] [-44:142] [-8:39] [-6:16] [-37:7] [-5:6] [-9:8] [-8:9] [-7:295] [-8:11] [-1176:10] [-26:11] [-35:7] [-7:6] [-1225:5] [-6:56] [-21:12] [-12:5] [-7:11] [-4:37] [-28:10] [-5:2824] [-26:6] [-8:9] [-7:25] [-5:23] [-13:10] [-8:2758] [-14:8] [-28:8] [-253:24] [-14:14] [-26:5] [-18:12] [-31:76] [-5:52] [-31:6] [-1289:5] [-5:32] [-8:6] [-28:8] [-12:5] [-73:4] [-45:8] [-20:11] [-15:9] [-7:21] [-8:22] [-42:11] [-16:13] [-23:7] [-23:5] [-8:29] [-15:23] [-8:18] [-7:20] [-43:50] [-6:12] [-5:15] [-15:7] [-1022:7] [-10:14] [-8:1277] [-11:8] [-5:19] [-20:15] [-5:9] [-7:6] [-7:30] [-15:31] [-6:45] [-5:23] [-45:7] [-17:74] [-30:11] [-15:8] [-5:566] [-5:56] [-7:196] [-6:20] [-5:2967] [-11:9] [-6:9] [-36:10] [-22:8] [-1061:6] [-17:6] [-840:15] [-5:6] [-6:18] [-7:22] [-36:8] [-6:9] [-30:7] [-34:7] [-2899:46] [-2915:16] [-15:24] [-13:10] [-7:5] [-9:8] [-22:5] [-7:142] [-8:5] [-6:25] [-10:8] [-3223:6] [-17:25] [-10:16] [-24:10] [-24:5] [-665:7] [-11:6] [-583:13] [-7:5] [-7:26] [-13:8] [-7:1616] [-10:34] [-32:60] [-9:5] [-12:6] [-25:14] [-757:7] [-32:6] [-11:6] [-10:48] [-8:53] [-8:5] [-119:13] [-8:41] [-33:6] [-12:6] [-8:6] [-6:25] [-12:7] [-51:6] [-10:8] [-16:7] [-22:5] [-10:5] [-7:20] [-9:7] [-7:13] [-11:28] [-6:263] [-25:5] [-8:44] [-8:7] [-12:10] [-8:16] [-9:11] [-10:10] [-1679:19] [-12:7] [-6:121] [-10:11] [-922:12] [-12:6] [-6:12] [-9:26] [-42:7] [-7:1983] [-7:7] [-10:3022] [-2426:10] [-6:10] [-38:7] [-25:9] [-6:33] [-16:6] [-48:1084] [-12:9] [-272:16] [-6:11] [-20:30] [-7:24] [-2460:7] [-20:7] [-6:127] [-2224:94] [-6:9] [-24:10] [-20:6] [-34:7] [-6:20] [-27:7] [-7:18] [-13:329] [-10:5] [-5:41] [-7:10] [-12:161] [-6:7] [-4:36] [-10:7] [-11:8] [-47:46] [-827:6] [-19:10] [-7:16] [-8:1832] [-24:20] [-13:11] [-18:138] [-15:15] [-7:10] [-2131:7] [-11:21] [-6:10] [-6:35] [-10:12] [-9:5] [-15:171] [-17:5] [-7:33] [-5:30] [-29:5] [-10:28] [-6:7] [-1314:26] [-22:25] [-2953:5] [-14:114] [-6:22] [-7:11] [-20:22] [-2868:5] [-14:261] [-19:18] [-46:583] [-6:11] [-18:7] [-8:9] [-38:7] [-4:7] [-5:1631] [-8:384] [-36:61] [-5:10] [-5:27] [-5:16] [-26:4] [-7:8] [-10:7] [-10:29] [-6:10] [-7:51] [-20:6] [-12:283] [-4:6] [-5:6] [-6:32] [-29:13] [-1398:7] [-21:19] [-8:11] [-9:254] [-26:7] [-103:10] [-5:25] [-5:11] [-9:14] [-9:8] [-22:7] [-7:6] [-6:27] [-13:21] [-44:443] [-552:5] [-22:5] [-7:6] [-7:5] [-14:9] [-27:47] [-13:86] [-8:7] [-6:15] [-12:6] [-25:7] [-4:31] [-6:5] [-2712:7] [-9:21] [-22:8] [-39:11] [-5:241] [-8:36] [-13:5] [-8:363] [-6:119] [-7:9] [-8:20] [-6:12] [-7:8] [-15:11] [-29:422] [-18:6] [-6:18] [-10:36] [-10:7] [-10:44] [-4:31] [-16:19] [-6:9] [-18:5] [-9:10] [-9:9] [-6:15] [-8:5] [-503:220] [-6:16] [-9:15] [-6:27] [-6:5] [-74:5] [-11:51] [-11:7] [-5:15] [-15:7] [-6:5] [-6:7] [-13:45] [-23:7] [-6:9] [-72:9] [-6:10] [-32:5] [-7:17] [-5:2850] [-5:117] [-5:23] [-8:12] [-1029:8] [-6:43] [-24:5] [-5:12] [-11:46] [-13:11] [-61:4183] [-5:57] [-6:36] [-14:3855] [-17:6] [-12:27] [-6:5] [-7:3071] [-20:18] [-6:39] [-10:48] [-31:15] [-34:6] [-10:33] [-11:21] [-9:18] [-46:6] [-7:8] [-16:5] [-29:5] [-654:6] [-3277:8] [-2686:22] [-11:5] [-28:5] [-26:5] [-316:920] [-170:30] [-29:8] [-5:8] [-6:6] [-13:47] [-982:7] [-17:12] [-6:801] [-18:7] [-6:9] [-18:3230] [-28:6] [-9:21] [-46:8] [-18:13] [-41:6] [-29:146] [-13:5] [-20:9] [-15:5] [-14:10] [-26:11] [-37:5] [-10:16] [-5:15] [-43:16] [-7:28] [-6:12] [-51:7] [-9:7] [-45:41] [-25:6] [-6:9] [-8:3027] [-45:1020] [-5:24] [-7:10] [-12:5] [-12:8] [-2021:13] [-27:7] [-5:9] [-9:35] [-11:10] [-3419:26] [-6:21] [-12:2175] [-4:6] [-10:11] [-7:25] [-8:31] [-20:10] [-6:6] [-1146:7] [-7:180] [-5:16] [-9:84] [-7:7] [-8:10] [-9:39] [-42:11] [-7:45] [-11:13] [-6:5] [-66:59] [-6:23] [-7:488] [-6:18] [-33:37036] [-5:7] [-18:19] [-5:164] [-9:8] [-9:9] [-5:657] [-19:8] [-7:9] [-38:7] [-14:6] [-20:7] [-8:13] [-8:47] [-9:6] [-54:34] [-9:12] [-10:14] [-24:4274] [-32:88] [-26:41] [-30:38] [-123:31] [-57:49] [-30:29] [-22:39] [-54:27] [-23:87] [-36:42] [-55:77] [-46:31] [-125:54] [-42:35] [-22:32] [-89:42] [-53:49] [-27:38] [-24:40] [-46:23] [-82:55] [-47:22] [-26:20] [-55:26] [-27:36] [-43:54] [-39:38] [-162:29] [-42:71] [-84:49] [-27:28] [-26:55] [-57:44] [-32:85] [-129:23] [-39:69] [-22:87] [-79:26] [-49:38] [-36:128] [-47:28] [-20:85] [-40:37] [-25:82] [-43:83] [-116:30] [-27:32] [-25:125] [-32:21] [-3808:73] [-27:37] [-48:46] [-19:39] [-41:22] [-89:37] [-39:37] [-41:26] [-121:34] [-28:92] [-26:42] [-130:30] [-26:43] [-32:82] [-20:49] [-36:40] [-45:36] [-46:41] [-23:31] [-31:23] [-32:48] [-25:84] [-31:164] [-20:37] [-33:35] [-35:42] [-25:43] [-55:87] [-27:40] [-48:23] [-23:50] [-29:41] [-49:41] [-57:24] [-33:84] [-22:47] [-20:46] [-54:170] [-41:29] [-29:81] [-85:36] [-71:22] [-31:38] [-125:59] [-38:31] [-127:42] [-42:22] [-85:39] [-26:41] [-81:25] [-48:27] [-65:21] [-79:41] [-71:33] [-20:27] [-31:54] [-20:24] [-81:28] [-29:24] [-22:28] [-21:44] [-54:34] [-19:38] [-57:40] [-134:35] [-39:35] [-76:24] [-31:42] [-41:23] [-27:20] [-81:23] [-55:34] [-93:39] [-43:62] [-67:41] [-83:24] [-23:82] [-29:17] [-50:20] [0:4294967296] [0:4294967296] [0:4294963200] [0:771625984] [0:610186688] [0:771629056] [0:3191769856] [0:2906158848] [0:4082706176] [0:4294967296] [0:2348796160] [0:735014912] [0:4294963200] [0:4294967296] [0:1097035648] [0:1349805440] [0:29555] [0:1701995648] [0:8428] [0:602420416] [0:3286756352] [0:3590279936] [0:4278219520] [0:3300199168] [0:18660876] [0:3914422016] [0:3771925760] [0:3823243264] [0:3758096384] [0:2784188672]
tree_sizes=6697 7261 7260 7316 7268 7311 7280 7315 7294 7314 7291 7327 7279 7308 7302 7303 7315 7331 7344 7322 7313 7331 7290 7301 7344 7345 7326 7331 7328 7337 7360 7353 7385 7318 7353 7345 7346 7345 7315 7353 7333 7357 7341 7362 7350 7334 7368 7339 7341 7373 7377 7363 7382 7335 7353 7299 7378 7326 7360 7366 7361 7402 7359 7329 7317 7363 7342 7324 7317 7307 7367 7343 7368 7295 7333 7400 7281 7289 7329 7298 7332 7274 7306 7359 7314 7248 7321 7329 7261 7304 7364 7267 7269 7333 7323 7306 7291 7254 7344 7229

Tree=0
num_leaves=64
num_cat=0
split_feature=637 2359 503 611 125 658 2377 2359 2355 2364 55 493 655 497 784 390 665 598 736 679 2360 128 1597 25 32 126 692 1060 784 1597 223 798 835 611 692 514 810 512 736 626 2355 1603 441 381 1526 685 105 578 596 1431 64 2354 1315 539 930 2375 1742 2364 2159 2359 32 828 613
split_gain=92618.8 52342.3 28444.7 14128.2 12878.5 8948.29 7367.1 6614.45 5063.68 4555.27 4509.34 4345.06 4277.97 3079.5 2852.95 2609.3 2550.48 2728.56 2463.53 2281.78 2340.54 2181.24 2155.12 1728.18 1724.1 1502.75 1553.02 1467.62 1428.36 1365.29 1335.18 1333.65 1196.32 1190.47 1173.46 1154.22 1123.2 1446.99 1094.08 1026.26 993.982 898.761 870.528 862.992 830.835 830.128 1114.92 792.396 815.789 771.414 745.163 730.342 724.154 721.088 686.824 1001.81 662.344 654.586 621.3 844.975 678.088 610.884 594.349
threshold=-1.0000000180025095e-35 5988.0000000000009 0.00024252026196336376 6.0083720684051523 0.0036785398842766885 -1.4999999999999998 260.00000000000006 3052.0000000000005 702.00000000000011 443274.00000000006 0.0040959687903523454 0.00036323687527328735 -1.0000000180025095e-35 0.0025484933285042648 -11.458341121673582 0.0011129041668027642 -1.0000000180025095e-35 0.032462269067764289 1040.0000000000002 9.5000000000000018 3789392.0000000005 1.0000000180025095e-35 -1.0000000180025095e-35 0.0034037708537653093 0.0021821899572387342 0.0012079261359758677 3.5000000000000004 1.0000000180025095e-35 -11.458341121673582 -1.0000000180025095e-35 0.0038632743526250128 -40037.999999999993 -17526.999999999996 5.872694969177247 1.0000000180025095e-35 213244.00000000003 -56911.999999999993 6125.5000000000009 3592.0000000000005 1518170112.0000002 24898.000000000004 -1.0000000180025095e-35 0.0010955652687698605 1.0000000180025095e-35 -1.0000000180025095e-35 192256.00000000003 0.003640864160843194 0.0035336581058800225 0.0022766576148569588 -1.0000000180025095e-35 0.010097842663526537 817656.00000000012 -1.0000000180025095e-35 0.011337159667164089 1.0000000180025095e-35 254.00000000000003 -1.0000000180025095e-35 1.0000000180025095e-35 -1.0000000180025095e-35 3300.0000000000005 0.0032716029090806846 -811703.99999999988 5.5000000000000009
decision_type=2 2 2 2 2 2 2 2 2 2 2 2 2 2 2 2 2 2 2 2 2 2 2 2 2 2 2 2 2 2 2 2 2 2 2 2 2 2 2 2 2 2 2 2 2 2 2 2 2 2 2 2 2 2 2 2 2 2 2 2 2 2 2
left_child=3 2 8 14 5 -4 11 13 12 16 24 18 31 -5 -1 -11 17 49 -6 20 25 -16 -18 32 40 -3 35 -15 -26 -13 43 -2 -24 47 -31 -27 37 -23 -36 -19 -10 -34 -35 -20 -43 -25 -47 48 -30 -7 -40 -28 -46 -17 -21 -56 -54 -33 59 60 -38 -58 -51
right_child=1 19 4 7 6 9 -8 -9 10 15 -12 29 -14 27 21 53 22 39 30 54 -22 36 23 45 28 26 51 -29 33 34 -32 57 41 42 38 -37 58 -39 50 -41 -42 44 -44 -45 52 46 -48 -49 -50 62 -52 -53 56 -55 55 -57 61 -59 -60 -61 -62 -63 -64
leaf_value=-0.37003271125214798 -0.65815737356804926 -0.63568751475345597 -0.60414084935826473 -0.58329968546085875 -0.38722662185787388 -0.56882252299079694 -0.6586841658837348 -0.6611299132522046 -0.43375214051914596 -0.38978232295609339 -0.39722920095103725 -0.55877175171211868 -0.61964907619368348 -0.60786382366133351 -0.37445835829692886 -0.60869470735108644 -0.47493463844104311 -0.59498207443732753 -0.42853346782423402 -0.65297987622656772 -0.6440452735331581 -0.37187088508131955 -0.53948896264563573 -0.39500983216989427 -0.36038756168302 -0.57603610060972721 -0.40686955413168763 -0.37700140622306044 -0.5920693655314716 -0.57394439382850126 -0.59773743243564692 -0.37783527006824152 -0.54678653581810799 -0.43732037066188373 -0.36423445728807452 -0.39722103923877011 -0.45454685979491904 -0.65783691995591986 -0.4258277202020494 -0.44865362125500519 -0.57960450165377952 -0.45999973440695607 -0.56806250319861484 -0.54191388034619103 -0.51019154186374505 -0.4005195299721126 -0.52388635373721593 -0.61667634566036034 -0.46951467252698192 -0.37798318064317377 -0.56140033640966891 -0.59964217174835766 -0.61690101179259826 -0.48063463828088759 -0.61821393114408618 -0.38508036631341619 -0.55883323194478296 -0.51279168579056644 -0.66462392188088837 -0.66312911124822538 -0.6050650409246392 -0.3656952316181975 -0.56388333263765311
leaf_weight=352.734375 197.34375 1377.421875 2070.9375 1121.953125 1064.53125 251.953125 2273.203125 1804.921875 1219.453125 1225.078125 1502.578125 742.5 1193.90625 298.59375 273.984375 1551.5625 2385 1338.28125 997.96875 10176.09375 3573.515625 312.421875 422.578125 3874.6875 269.296875 3075.234375 1337.34375 3539.53125 1778.90625 462.421875 3135.9375 3498.75 287.8125 736.171875 3311.25 408.984375 356.484375 408.046875 5962.5 746.71875 757.5 997.03125 1652.34375 2051.015625 354.84375 1391.015625 1547.578125 10524.609375 781.875 3310.3125 435 230.390625 105.703125 613.59375 918.046875 230.625 164.296875 400.546875 34538.90625 2858.4375 1865.859375 50670.46875 181.40625
leaf_count=1505 842 5877 8836 4787 4542 1075 9699 7701 5203 5227 6411 3168 5094 1274 1169 6620 10176 5710 4258 43418 15247 1333 1803 16532 1149 13121 5706 15102 7590 1973 13380 14928 1228 3141 14128 1745 1521 1741 25440 3186 3232 4254 7050 8751 1514 5935 6603 44905 3336 14124 1856 983 451 2618 3917 984 701 1709 147366 12196 7961 216194 774
internal_value=-0.510826 -0.469753 -0.443785 -0.631093 -0.41875 -0.399223 -0.488968 -0.497211 -0.539713 -0.393281 -0.563557 -0.467727 -0.453079 -0.437563 -0.653202 -0.506412 -0.387643 -0.450896 -0.527739 -0.613965 -0.579162 -0.655661 -0.381716 -0.377999 -0.577661 -0.543099 -0.517855 -0.394962 -0.588714 -0.427864 -0.551924 -0.404534 -0.371905 -0.592688 -0.418308 -0.555046 -0.657571 -0.533831 -0.410895 -0.542576 -0.489638 -0.370558 -0.527766 -0.504803 -0.369588 -0.425408 -0.465489 -0.604538 -0.55465 -0.399835 -0.435046 -0.435199 -0.367831 -0.572403 -0.644706 -0.571406 -0.366839 -0.391698 -0.659821 -0.627171 -0.580921 -0.366319 -0.387641
internal_weight=187500 139768 118440 47731.9 93927.2 73490.9 20436.3 6765 24513.3 71419.9 19222.7 18163.1 5290.55 4960.08 40966.9 3390.23 68029.7 5828.67 7249.45 21327.7 10002.9 40614.1 62201 59816 17720.2 6429.38 5051.95 3838.12 15743.2 10913.7 6184.92 4096.64 53002.7 15473.9 10171.2 3484.22 40340.2 720.469 9708.75 2085 1976.95 52580.2 2388.52 3048.98 52292.3 6813.28 2938.59 13085.4 2560.78 3743.67 6397.5 1567.73 51295.3 2165.16 11324.8 1148.67 50940.5 3899.3 39619.7 5080.78 2222.34 50834.8 3491.72
internal_count=800000 596344 505346 203656 400756 313561 87195 28864 104590 304725 82017 77496 22573 21163 174792 14465 290260 24869 30931 90998 42679 173287 265391 255215 75606 27432 21555 16376 67171 46565 26389 17479 226145 66022 43397 14866 172118 3074 41424 8896 8435 224342 10191 13009 223114 29070 12538 55831 10926 15973 27296 6689 218860 9238 48319 4901 217346 16637 169044 21678 9482 216895 14898
is_linear=0
shrinkage=1


Tree=1
num_leaves=64
num_cat=0
split_feature=637 2359 503 611 125 658 2141 2359 527 616 2364 533 497 784 589 374 2361 665 598 55 128 123 692 1597 2360 369 626 389 25 32 1060 554 1941 810 870 2353 546 1470 32 45 2355 532 2356 105 2364 32 691 373 584 32 680 192 617 181 640 2360 692 994 825 734 1431 691 1412
split_gain=76996.9 42523.6 22380.2 12294.6 9895.94 6971.05 6057.27 5580.63 4149.78 3691.16 3350.75 3038.47 2492.89 2379.35 2373.92 2170.47 2022.7 1930.18 2141.46 1916.73 1854.02 1803.61 1648.34 1580.72 1438.7 1438.52 1515.78 1399.54 1305.81 1234.41 1172.12 1058.17 1031.96 1488.72 1000.95 961.445 938.59 935.001 882.092 858.135 842.866 744.043 732.792 764.189 698.554 697.766 782.771 649.414 638.011 634.885 638.506 633.057 631.39 627.635 622.168 617.355 612.631 612.597 609.06 607.26 600.948 588.16 658.62
threshold=-1.0000000180025095e-35 5988.0000000000009 0.00028607365675270563 6.0024473667144784 0.0036785398842766885 -1.4999999999999998 -1.0000000180025095e-35 3052.0000000000005 9.7276279120706035e-05 4805232.0000000009 443274.00000000006 0.0058713585603982219 0.0025484933285042648 -11.458341121673582 0.0035193805815652017 0.0012358796666376295 14.000000000000002 -1.0000000180025095e-35 0.032462269067764289 0.00069289642851799737 1.0000000180025095e-35 0.0035747728543356065 3.5000000000000004 -1.0000000180025095e-35 3347200.0000000005 2.4568237677158326e-05 1307428160.0000002 0.0078760823234915751 0.0034439828014001255 0.0042481275741010913 1.0000000180025095e-35 0.0061229423154145488 1.0000000180025095e-35 -56911.999999999993 -1.0000000180025095e-35 17045.000000000004 0.0011940674739889803 -1.0000000180025095e-35 0.0030518050771206622 0.006228865124285222 702.00000000000011 0.038994496688246734 636928.00000000012 0.0037387830670922999 180616.00000000003 0.0072067808359861383 1.5000000000000002 0.00076284765964373957 0.068260610103607192 0.0015549345407634976 65.000000000000014 0.0042831369210034618 3954688.0000000005 0.0013278533588163557 1.0000000180025095e-35 189500.00000000003 1.0000000180025095e-35 -1.0000000180025095e-35 -154703.99999999997 -26479.999999999996 -1.0000000180025095e-35 1.5000000000000002 -1.0000000180025095e-35
decision_type=2 2 2 2 2 2 2 2 2 2 2 2 2 2 2 2 2 2 2 2 2 2 2 2 2 2 2 2 2 2 2 2 2 2 2 2 2 2 2 2 2 2 2 2 2 2 2 2 2 2 2 2 2 2 2 2 2 2 2 2 2 2 2
left_child=3 2 8 13 5 56 -6 12 19 21 17 34 48 -1 61 -12 22 18 60 49 -15 37 41 -19 36 26 29 54 35 -23 -14 57 -22 -34 -10 45 -24 -8 -36 -40 -20 -3 -30 -44 -27 -25 58 59 -5 -2 -51 -21 -11 -35 -18 -39 -4 -16 -47 -42 -7 -13 -63
right_child=1 16 4 7 6 10 9 -9 11 52 15 14 30 20 31 -17 27 23 40 51 32 25 24 28 -26 44 -28 -29 42 -31 -32 -33 33 53 38 -37 -38 55 39 -41 47 -43 43 -45 -46 46 -48 -49 -50 50 -52 -53 -54 -55 -56 -57 -58 -59 -60 -61 -62 62 -64
leaf_value=0.12277798555652122 0.08556892491242124 -0.094118191390756889 -0.12935875113705697 -0.08859283543118962 -0.13933971715849774 -0.053255825481848533 -0.072708868371070642 -0.14170370791722567 0.13127875576923351 -0.11055463833221731 0.091973001137084121 -0.078026103720193876 -0.090353879144851851 0.11893225866866815 0.10668339742475677 -0.070001952713625332 0.14411943754983211 0.032991673572468912 0.1573068813033906 0.11579818568050432 -0.14422992280001515 -0.05057480498538286 -0.11569854684289044 0.12627530938903195 -0.096898373695377168 -0.0087152887859423683 0.10450542110307087 0.066278366341994591 0.098923580563901381 0.083088900197569121 0.11681698548909746 0.077954501879458571 0.12577819979027086 -0.12447969327649307 -0.015113840107778765 -0.077881723568007752 0.091503531797649293 0.1072114574599875 -0.10433773506292904 0.062844025787526833 0.091525315153247924 0.11720395933957901 0.084148353009908375 -0.031176930262708742 -0.13300871736388958 0.12071719888285462 0.12436764977252411 -0.10293924633482615 0.1690657490516024 -0.069847444436649628 0.1351611399843525 -0.045768501055826506 0.0097415310867332919 -0.015281541730276292 -0.12920180844820453 -0.022494871530676752 -0.015458519816310926 -0.058821980849879607 0.027589748568918517 -0.085909704755741154 0.10781041837366673 -0.13996025679715948 0.055687409748090867
leaf_weight=357.37639412283897 444.35193878412247 5503.0005827993155 1237.3682948201895 1056.5362044274807 2142.9386128485203 247.66998809576035 328.45179150998592 1784.4931841045618 215.00593973696232 1718.1541612446308 1545.1635171920061 3228.0559729635715 295.06233489513397 282.23999588191509 278.95254772901535 1780.6769481450319 83.867618456482887 2373.1422835886478 216.78992652893066 2916.4895872622728 34076.75861735642 1748.0977545976639 256.50684058666229 47820.183023095131 865.89726826548576 2358.8642185330391 2908.6510020196438 385.43313363194466 3993.424400255084 1142.4898295253515 3668.2416873127222 3220.337593883276 290.48486895859241 3561.4229007363319 1479.1938583105803 241.71812984347343 1480.0820407420397 6558.903712362051 8693.513254314661 318.26814568042755 459.91525627672672 171.81462576985359 1181.5181515514851 1118.5341289639473 559.40444147586823 1022.1932188123465 3595.1726883202791 1045.143499687314 105.7198681384325 1493.3989032506943 169.12733042240143 264.51012073457241 584.81755487620831 617.63390125334263 11965.332384645939 388.70173707604408 763.67217752337456 1127.8757769018412 2243.8455317020416 332.20931366086006 3580.710501909256 223.42710982263088 748.43670983612537
leaf_count=1479 1876 24149 5415 4599 9516 1073 1410 7947 904 7446 6477 13965 1293 1169 1183 7724 356 10038 923 12215 151788 7473 1123 197954 3823 10043 12247 1646 16638 4790 15205 13629 1210 15795 6343 1032 6216 27423 38001 1377 1966 730 4934 4778 2416 4233 14880 4517 461 6463 705 1141 2512 2710 52955 1642 3342 4864 9343 1439 14873 976 3207
internal_value=-0.000208326 0.0365236 0.0593517 -0.112383 0.081393 0.0982433 0.0197285 0.0106013 -0.0252211 0.038359 0.103305 -0.0464955 0.0636272 -0.13407 -0.00305984 0.00525054 -0.0958024 0.107999 0.0531953 0.0533655 -0.136434 0.0554028 -0.0574999 0.113069 0.00839629 0.0247232 0.0535395 -0.121299 0.116173 0.00225508 0.101393 0.0463471 -0.138304 -0.0931251 -0.0823083 0.121117 0.0608983 0.0921604 -0.0866856 -0.0984334 -0.0291763 -0.0877201 0.0730271 0.0280647 -0.0325412 0.121996 0.0921742 -0.0511806 -0.065156 -0.0206125 -0.0489921 0.102363 -0.0800066 -0.108341 -0.127299 0.0999547 -0.0858901 -0.0260048 0.0567364 0.0171108 0.0973905 -0.0574928 0.0107089
internal_weight=186867 140771 120059 46096 95238.5 74799.1 20439.5 6910.05 24820.9 18296.5 72798 19533.1 5125.56 39185.9 8827.09 3325.84 20711.9 69472.2 5882.44 5287.88 38828.5 15993.6 8277.3 63589.7 2602.49 8717.51 5799.24 12434.6 61216.6 2890.59 3963.3 4627.17 38546.3 4469.54 10706 54923.1 1736.59 7276.06 10491 9011.78 2054.06 5674.82 6293.48 2300.05 2918.27 54681.4 6861.21 1837.27 1162.26 2106.88 1662.53 3181 2302.97 4179.06 12049.2 6947.61 2001.04 1406.83 3266.04 792.125 3828.38 4199.92 971.864
internal_count=800000 596344 505346 203656 398497 311579 86918 29505 106849 77402 302822 84449 21558 174151 37824 14201 90998 288621 24791 22400 172672 67444 36041 263830 11162 36969 24510 54957 253792 12263 16498 19676 171503 19715 46625 227442 7339 30475 45721 39378 8845 24879 26350 9712 12459 226410 28456 7922 5060 9044 7168 13356 9958 18505 53311 29065 8757 6047 13576 3405 15946 18148 4183
is_linear=0
shrinkage=0.1


Tree=2
num_leaves=64
num_cat=0
split_feature=637 2359 496 611 125 658 2377 2359 2355 55 655 511 2364 784 497 679 2360 2095 589 2352 554 381 128 10 1876 681 492 206 692 2364 523 620 567 389 1215 1941 810 1060 807 512 248 337 836 373 512 1546 686 527 836 472 686 692 626 685 930 620 692 504 505 578 256 144 256
split_gain=64517.4 34794.1 17901.6 10768 7824.63 5366.12 4795.39 4667.02 4094.45 3347.55 3233.93 3051.44 2353.3 2034.11 1990.8 1876.23 1883.44 1815.37 1752.86 1739.8 1698.11 1671.2 1588.57 1548.04 1442.88 1419.18 1300.14 1211.49 1226.14 1124.17 1128.17 1073.34 1048.87 1002.84 998.809 957.15 1242.87 930.261 845.12 819.866 759.986 720.158 679.092 653.29 647.436 642.369 636.53 630.457 626.051 625.876 609.863 603.016 600.48 834.066 589.639 796.658 563.803 563.708 558.271 547.828 545.412 543.069 509.437
threshold=-1.0000000180025095e-35 5988.0000000000009 0.00083287106826901447 6.0024473667144784 0.0036614700220525269 -1.4999999999999998 260.00000000000006 3052.0000000000005 702.00000000000011 0.0040959687903523454 -1.0000000180025095e-35 0.061733175069093711 443274.00000000006 -11.458341121673582 0.0025484933285042648 9.5000000000000018 3789392.0000000005 -1.0000000180025095e-35 0.0015359158860519531 19350.000000000004 0.0065088919363915929 1.0000000180025095e-35 1.0000000180025095e-35 0.0038434467278420929 -1.0000000180025095e-35 4.5000000000000009 0.0013953082961961629 0.0011134506203234198 3.5000000000000004 25128.000000000004 0.01115808403119445 76.500000000000014 0.0037458275910466914 0.006474157329648734 1.0000000180025095e-35 1.0000000180025095e-35 -56911.999999999993 1.0000000180025095e-35 187870.00000000003 188.50000000000003 0.00060478749219328176 9.3495953478850438e-05 36946.000000000007 0.00028779011336155241 21624.500000000004 1.0000000180025095e-35 580.00000000000011 9.7276279120706035e-05 770.00000000000011 0.038086369633674629 712.00000000000011 1.0000000180025095e-35 1514279168.0000002 761600.00000000012 1.0000000180025095e-35 18.500000000000004 1.0000000180025095e-35 0.00017737780581228438 0.0068480505142360934 0.020408338867127899 0.11320684105157854 0.0041249252390116462 0.055968640372157104
decision_type=2 2 2 2 2 2 2 2 2 2 2 2 2 2 2 2 2 2 2 2 2 2 2 2 2 2 2 2 2 2 2 2 2 2 2 2 2 2 2 2 2 2 2 2 2 2 2 2 2 2 2 2 2 2 2 2 2 2 2 2 2 2 2
left_child=3 2 8 13 5 56 11 14 10 18 34 21 23 -1 60 16 27 38 32 20 40 -6 -15 24 62 -13 48 -3 33 30 52 39 -10 46 59 -24 -37 -16 -14 -22 47 49 -43 -33 -27 -28 -29 -20 -23 -26 -44 -31 53 -25 -17 -56 -4 -42 -38 -2 -5 -32 -7
right_child=1 15 4 7 6 12 -8 -9 9 -11 -12 25 17 22 37 54 -18 -19 19 -21 31 26 35 29 41 44 45 28 -30 51 61 43 -34 -35 -36 36 58 -39 -40 -41 57 42 50 -45 -46 -47 -48 -49 -50 -51 -52 -53 -54 -55 55 -57 -58 -59 -60 -61 -62 -63 -64
leaf_value=0.10832158839377409 0.11143339748324042 -0.1072066083412429 -0.12179058415853972 -0.090789306886888799 0.09843247781009308 -0.01846703466270409 -0.13092966980090318 -0.13437834710155994 0.018407468701495729 0.094362138603393653 -0.091549321467428557 -0.087978733433374479 0.1243795020157162 0.10495350549772547 -0.083800063205586861 -0.12670227562136241 -0.11822318553854345 -0.075500929021888152 0.098604680666420252 -0.12397374714266943 -0.032582102790064023 0.11163296129227435 -0.13691455920195247 0.07608784032778898 0.11517904007266198 0.10103545907192923 0.081534269231332002 0.08070893379927821 0.073314306563104004 -0.11537504687828307 0.076920591607418473 0.040347772952371186 -0.11385516843244479 0.12543551499621083 -0.11565537255493037 0.11074528932818757 -0.11079453783045497 0.10309389657726649 -0.023707965948025572 0.091121387351526834 -0.090650660449136014 0.10401557523468215 -0.062893354836378576 -0.062215107627915683 -0.054608540998484015 0.0040699465859863259 -0.069623465011108207 -0.048672160466593145 -0.027393165468135684 0.052662604488027967 0.06390722713223139 0.040945756229193386 0.11243839463450325 -0.070577341186554496 -0.1028599282761436 0.086018303092286474 -0.0085872051837618552 0.009111634582522463 0.045732819909039213 -0.025185507176399721 0.095572671813450694 -0.032437011350074492 0.11052297483077056
leaf_weight=364.15593105554581 4148.0508207678795 1393.285401776433 1158.7906506359577 950.51734556257725 5492.5202379524708 1263.1002417653799 1938.74791200459 1698.0544552356005 678.80065140128136 1684.9050845354795 1215.9331682771444 2569.709828555584 1192.5342302471399 287.53092962503433 286.76452042162418 9372.5291157215834 3317.422256320715 1417.3529483377934 507.73715177178383 1793.0044375360012 700.40705136954784 356.13174159824848 32394.434683561325 5633.4827504456043 41659.57258220017 745.06263460218906 3971.2366133034229 314.67456303536892 1511.8193209469318 483.5001545548439 698.09933863580227 973.30566492676735 5137.6133744865656 348.2302708029747 221.78631603717804 296.55953593552113 3786.0895677655935 3736.7746170908213 569.3671540170908 2279.3079032301903 3788.649158641696 5809.6007695496082 427.37283043563366 1715.9924400299788 416.74924509227276 1465.5361373722553 2683.9223087131977 679.85072338581085 3579.3610397875309 1665.4200582057238 3372.4850045740604 504.01212275028229 5156.0154870897532 416.40573959052563 787.14473716914654 311.75313836336136 709.22575294971466 665.95688000321388 242.44931676983833 315.85927979648113 188.12031501531601 1299.2620889693499 404.14836502075195
leaf_count=1479 17056 6300 5287 4245 22596 5287 9031 7947 2947 6960 5424 11292 4943 1169 1293 43418 15247 6185 2142 7998 3061 1467 151788 23119 169517 3092 16437 1359 6279 2098 2859 4213 22948 1463 995 1210 17422 15205 2478 9625 16884 23679 1809 7552 1846 6154 12031 3025 15365 6835 13810 2091 21077 1740 3568 1333 3118 2816 1083 1337 815 5492 1659
internal_value=-0.00036259 0.0327084 0.0529404 -0.105728 0.0733351 0.0885198 0.0187341 0.00943239 -0.0196721 -0.0407056 0.0537661 0.0343372 0.0928629 -0.126868 0.0567377 -0.0893271 -0.0573199 0.00874948 -0.0527335 -0.0324554 -0.0179483 0.0546328 -0.129182 0.0967502 0.104398 -0.0465119 0.0289645 -0.0250031 -0.00143013 0.0673249 0.0750223 0.0207061 -0.0984195 -0.0351935 0.0914753 -0.131015 -0.0868298 0.0897736 0.0765243 0.0620438 -0.0567864 0.107283 0.0825162 -0.0250957 0.045205 0.060653 -0.0538475 0.0142941 -0.0148124 0.112776 0.0496459 -0.0355911 0.0873633 0.0659931 -0.118577 -0.0492759 -0.0788109 -0.0757363 -0.101374 0.101766 -0.0599995 0.00578465 0.0128007
internal_weight=185154 140923 120882 44231.5 94374.8 73839.7 20535.1 6860.23 26507.2 20605.5 5901.63 18596.3 71971.7 37371.2 5162.18 20040.8 9569.35 3179.25 18920.6 13104.2 11311.2 14864.8 37007.1 68792.5 54601.7 3731.52 9372.27 6251.93 4858.65 14190.8 13203.3 5669.01 5816.41 3346.83 4685.7 36719.5 4325.1 4023.54 1761.9 2979.71 5642.19 52934.5 9609.46 2689.3 1161.81 5436.77 2998.6 1187.59 3935.49 43325 3799.86 987.512 11205.9 6049.89 10471.4 1098.9 1868.02 4454.61 4028.54 4463.91 1138.64 1997.36 1667.25
internal_count=800000 596344 505346 203656 390363 303083 87280 29505 114983 90171 24812 78249 294678 174151 21558 90998 42679 13606 83211 57316 49318 62019 172672 281072 222596 16230 39423 27432 21132 58476 54287 24451 25895 14853 19388 171503 19715 16498 7421 12686 24867 215650 39298 11765 4938 22591 13390 5167 16832 176352 15619 4189 45936 24859 48319 4901 8405 19700 18505 18393 5060 8351 6946
is_linear=0
shrinkage=0.1


Tree=3
num_leaves=64
num_cat=0
split_feature=637 2359 503 611 2141 658 219 2359 255 1793 1597 692 533 626 589 373 784 493 2361 442 2092 128 692 567 1526 1315 862 685 617 786 1235 640 757 596 256 2159 2359 1546 2364 968 532 123 685 20 1627 253 2361 828 460 951 484 251 1948 386 691 1561 2354 2008 632 619 2364 608 2360
split_gain=54389.5 28657.3 14043.2 9491.2 6721.04 5535.1 4212.79 3931.15 3088.6 2605.33 2436.57 2065.37 2049.58 1960.46 1758.53 1754.08 1753.07 1753.07 1747.06 1666.77 1376.85 1372.14 1257.47 1240.44 1073.72 1078.46 1091.18 1049.59 1049.35 1038.4 1028.63 1027.58 1003.23 976.656 1030.73 918.315 1181.96 871.987 817.782 689.776 677.396 676.283 674.585 650.962 638.588 625.535 604.301 593.089 591.851 575.903 570.202 986.308 553.586 538.592 530.046 625.369 528.357 512.772 509.595 521.336 504.071 499.292 607.554
threshold=-1.0000000180025095e-35 5228.0000000000009 0.00021855105296708646 6.0024473667144784 -1.0000000180025095e-35 -1.4999999999999998 0.00353119510691613 3052.0000000000005 0.013670538552105429 1.0000000180025095e-35 -1.0000000180025095e-35 1.0000000180025095e-35 0.0077571319416165361 1307428160.0000002 0.0019002609187737109 0.00092258933000266563 -11.458341121673582 0.00046445187763310974 14.000000000000002 0.00122756784548983 -1.0000000180025095e-35 1.0000000180025095e-35 3.5000000000000004 0.0040166100952774295 -1.0000000180025095e-35 -1.0000000180025095e-35 -1.0000000180025095e-35 700672.00000000012 16400.000000000004 5.4708786010742196 1.0000000180025095e-35 1.0000000180025095e-35 5.7243735790252694 0.0032320801401510839 0.038461940363049514 -1.0000000180025095e-35 3300.0000000000005 1.0000000180025095e-35 4440.0000000000009 -1.0000000180025095e-35 0.038994496688246734 0.0023798914626240735 2576.0000000000005 0.0057271637488156566 -1.0000000180025095e-35 0.00090968565200455498 32.500000000000007 -609905.99999999988 8.6031006503617405e-05 -1.0000000180025095e-35 0.036278504878282554 0.0026601373683661227 1.0000000180025095e-35 0.00032087789440993225 1.5000000000000002 -1.0000000180025095e-35 286774.00000000006 1.0000000180025095e-35 1.0000000180025095e-35 3.5000000000000004 110024.00000000001 0.0021259407512843613 3122452.0000000005
decision_type=2 2 2 2 2 2 2 2 2 2 2 2 2 2 2 2 2 2 2 2 2 2 2 2 2 2 2 2 2 2 2 2 2 2 2 2 2 2 2 2 2 2 2 2 2 2 2 2 2 2 2 2 2 2 2 2 2 2 2 2 2 2 2
left_child=3 2 8 16 20 38 10 19 14 18 27 15 32 17 23 42 -1 39 22 46 -4 -18 40 -2 -13 -26 -27 54 -25 -24 44 -20 49 34 -14 36 53 -15 -6 -8 61 -17 -12 47 -11 -36 -5 -28 -39 -10 -37 -52 -19 -23 55 -7 -45 -40 -49 -60 -44 -3 -63
right_child=1 9 4 7 5 6 13 -9 12 30 11 24 33 37 -16 41 21 52 31 -21 -22 35 29 28 25 26 43 -29 -30 -31 -32 -33 -34 -35 45 50 -38 48 57 -41 -42 -43 60 56 -46 -47 -48 58 -50 -51 51 -53 -54 -55 -56 -57 -58 -59 59 -61 -62 62 -64
leaf_value=0.09641727009187917 0.093860670751218511 -0.11982077328718788 -0.13503267957262785 -0.024623763906193211 0.040511485870285642 -0.064615480031719422 0.10340427374490087 -0.12815537726816886 0.052698036911255547 0.095515155216842021 -0.12011433155440723 0.016158470081088991 -0.055985920132603 0.081015174779523969 0.082495570626504269 0.038693947666712664 0.093400595431222533 0.056406452059287508 0.1174820905874213 -0.056777151653708474 0.033320789441858456 0.055670758275989676 -0.05702745720344652 0.1001360499013354 -0.017476011468921932 -0.13970604951457588 -0.026401351887868033 -0.093492954332875439 -0.074473553657396163 0.061903058577209229 -0.098383717167318988 -0.11582093848701738 0.063580541564699208 0.079900159230770401 -0.074173091116466014 -0.13297647920836869 -0.13118998823892744 -0.054363343915439323 -0.11978213084621235 -0.073965073029375855 0.10241747956032604 -0.10602626050089528 0.098882963286751155 0.093729435045883491 -0.023598452538996291 0.078464332395004222 0.095014322601109466 -0.033434524291026883 0.048651520050993657 -0.084278722189474103 -0.12632916724615709 0.17175280969106993 -0.055871733212049773 -0.058756620859367205 0.11231198786785412 0.060703391545408075 -0.0020899760347502204 0.078409220282277176 0.10078740150898827 -0.034901949905063893 -0.040800669742945141 -0.028957761296452396 -0.113676495798021
leaf_weight=367.97146743535995 787.16682960093021 2388.5758826583624 1934.3265661150217 478.89226758480072 474.24811235070229 724.63322527706623 234.91486148536205 1607.1585219800472 317.41543731093407 1327.9354101866484 175.35388131439686 1789.6599418371916 2809.4606907218695 5683.9119804501534 3629.4710048884153 456.56571628153324 290.59975028038025 2823.2595836520195 192.10889066755772 1124.6174949258566 648.69744434952736 546.42996262013912 1501.4530573934317 403.97103579342365 846.50433211028576 195.59391869604588 376.19366267323494 892.45978380739689 2325.2833527028561 1436.5474667549133 557.52720527350903 10922.902376115322 514.39358696341515 1269.7901545017958 343.53160440921783 29628.327934846282 2463.750545591116 913.20865288376808 1837.4449790716171 3289.1984570920467 200.67186956107616 1102.9590863585472 2232.6707517206669 1123.3145509362221 680.85672974586487 1229.1311981081963 3566.1331598609686 286.85602122545242 1432.6851022988558 9301.7593804299831 325.36336196959019 168.48777207732201 520.01451064646244 1663.8312228322029 632.33941003680229 883.95325964689255 1179.9457917660475 140.52744598686695 61276.574550494552 284.47098670899868 292.15079176425934 2247.2470519840717 1358.0517491996288
leaf_count=1479 3287 11132 9446 2033 2116 3021 970 7947 1393 5526 760 7424 12416 23359 15070 1927 1169 11536 789 4984 2737 2454 6671 1640 3595 882 1553 3884 10583 6087 2621 52495 2222 5302 1531 146722 12075 3981 8501 14449 834 4883 9102 4545 3053 5149 14541 1181 5975 42530 1609 830 2171 7813 2619 3659 4926 620 247247 1182 1265 10139 6358
internal_value=-0.000485375 0.0294388 0.0493343 -0.0999904 0.0663392 0.070801 0.0748555 0.00844396 -0.0208797 -0.0731315 0.0845327 0.0883091 -0.0455722 0.0262963 0.0336668 0.0207795 -0.120716 -0.0129305 -0.0851624 0.0509105 -0.0927526 -0.122994 -0.0527564 -0.0167318 0.0925795 0.0946654 0.0961321 -0.00178177 -0.0486287 0.00112411 0.0217896 -0.111789 -0.0724826 0.00267668 -0.0197001 -0.124801 -0.08356 0.0598446 -0.0774245 -0.0621418 -0.0783112 -0.063658 0.0695476 0.0968469 0.055143 0.0451223 0.0808503 0.0987793 0.00854993 -0.0797587 -0.1312 -0.0246322 0.0389426 -0.0304674 0.0347427 0.00424997 0.0446418 -0.105701 0.0995408 0.10016 0.08272 -0.0843619 -0.0608698
internal_weight=182661 140430 117616 42231.6 94684.6 92101.6 89649.4 6776.8 22931.4 22813.9 74752.2 71618.8 15785.5 14897.2 7145.89 4259.7 35454.8 6867.39 20247.6 5169.64 2583.02 35086.8 9132.55 3516.42 67359.1 65569.5 64722.9 3133.39 2729.25 2938 2566.32 11115 10133.6 5651.91 4382.12 34796.2 4674.01 8029.81 2452.22 3524.11 6194.55 1559.52 2700.18 64527.4 2008.79 1572.66 4045.03 62224.1 2345.89 9619.17 30122.2 493.851 3343.27 2210.26 2240.93 1608.59 2303.26 1977.97 61847.9 61561 2524.82 5993.87 3605.3
internal_count=800000 596344 490639 203656 389516 377333 366096 29505 101123 105705 303655 290472 70543 62441 30580 17937 174151 29126 94505 21558 12183 172672 41221 15510 272535 265111 261516 13183 12223 12758 11200 53284 46145 24398 19096 171503 22342 33315 11237 15419 28463 6810 11127 260634 8579 6680 16574 251163 9956 43923 149161 2439 13707 10267 9299 6680 9471 9121 249610 248429 10367 27629 16497
is_linear=0
shrinkage=0.1


Tree=4
num_leaves=64
num_cat=0
split_feature=637 2359 496 611 125 2178 2359 683 55 578 616 798 679 126 497 679 32 32 784 685 507 591 128 2355 554 2360 1689 567 862 1941 810 415 736 617 685 615 2355 2204 692 775 1254 2355 615 1060 111 2355 1798 691 683 626 655 1597 181 930 620 786 496 1559 835 683 721 274 834
split_gain=46047.8 23721.8 11687.5 8440.46 5079.76 3800.16 3540.36 3286.61 3036.27 2803.29 2591.3 1574.11 1570.09 1579.19 1548.54 1545.16 1521.07 1485.7 1477.4 1336.81 1219.54 1269.16 1198.9 1173.57 1264.42 1123.66 964.696 909.031 906.676 891.555 1003.42 834.889 817.544 816.503 838.398 791.554 766.482 736.748 734.039 729.547 711.558 703.208 702.845 700.689 676.929 669.498 647.939 589.089 750.159 604.771 572.936 545.307 541.276 528.523 656.353 519.199 469.763 463.442 460.13 459.731 459.341 456.689 449.351
threshold=-1.0000000180025095e-35 5988.0000000000009 0.00083287106826901447 5.9876797199249276 0.0032589144539088015 -1.4999999999999998 3052.0000000000005 5.5000000000000009 0.00081381225027143966 0.015941658057272438 1382796.0000000002 -40037.999999999993 9.5000000000000018 0.0012079261359758677 0.0025484933285042648 42.500000000000007 0.0072067808359861383 0.0017136406386271121 -11.458341121673582 1089792.0000000002 0.061278130859136588 0.01598486211150885 1.0000000180025095e-35 702.00000000000011 0.0082785710692405718 4082432.0000000005 -1.0000000180025095e-35 0.0040166100952774295 -1.0000000180025095e-35 1.0000000180025095e-35 -56911.999999999993 0.0074952733702957639 3592.0000000000005 82304.000000000015 733440.00000000012 2.5000000000000004 736.50000000000011 -1.0000000180025095e-35 3.5000000000000004 -5.9006364345550528 -1.0000000180025095e-35 824.50000000000011 1.5000000000000002 1.0000000180025095e-35 0.011176393367350103 24898.000000000004 -1.0000000180025095e-35 1.5000000000000002 4.5000000000000009 1513802560.0000002 -1.0000000180025095e-35 -1.0000000180025095e-35 0.0013278533588163557 1.0000000180025095e-35 18.500000000000004 4.7385199069976816 0.05629373528063298 1.0000000180025095e-35 -3537.4999999999995 4.5000000000000009 -3839.9999999999995 0.0089327250607311743 -545126.99999999988
decision_type=2 2 2 2 2 2 2 2 2 2 2 2 2 2 2 2 2 2 2 2 2 2 2 2 2 2 2 2 2 2 2 2 2 2 2 2 2 2 2 2 2 2 2 2 2 2 2 2 2 2 2 2 2 2 2 2 2 2 2 2 2 2 2
left_child=3 2 8 18 7 55 14 16 17 11 15 39 13 -3 -5 32 28 45 -1 41 21 40 -20 -13 27 38 -9 -25 -4 60 -31 37 51 -34 35 -35 50 -30 46 -10 -12 -18 -29 -16 56 -2 -15 49 -49 -38 -19 -7 -32 -14 -55 -6 -43 -37 -42 -51 -24 -62 -40
right_child=1 12 4 6 5 10 -8 26 9 -11 20 23 53 25 43 -17 19 36 22 -21 -22 -23 29 24 -26 -27 -28 42 31 30 52 -33 33 34 -36 57 47 -39 62 -41 58 44 -44 -45 -46 -47 -48 48 -50 59 -52 -53 -54 54 -56 -57 -58 -59 -60 -61 61 -63 -64
leaf_value=0.088134182543183573 0.076906146522271956 -0.11746538220060002 -0.1368267204008736 -0.054593923695892999 -0.1308176288176407 -0.095980638879907126 -0.12349371526950742 0.041269809018002465 0.098254185053970378 -0.078794233226112009 -0.033894529862997361 0.094299138784399425 -0.11504475728150446 0.068555265918221267 -0.078449252639438541 -0.093464103751657646 0.098818087249529729 0.043193013327527979 0.083628246883389115 -0.075092637120406036 -0.072048118288087645 -0.0655639832348342 0.19218997345266089 0.080632324089388641 0.072177556264262754 -0.092713516062100154 -0.088147488144381531 -0.07750975828116935 -0.082583329731089269 0.10453769380921239 -0.10610887024144625 0.032435289015034972 -0.060958750745447723 -0.011890077641395953 -0.055004001742370648 0.075967446909838185 -0.11041948223583993 0.090671941896446395 -0.10713846632072721 -0.10383963950176484 -0.034817189347916846 0.056783059537445307 0.013009382481613123 0.084755587557161782 -0.068124133989769256 -0.064026465249570716 -0.047379870686956267 0.046836247848767068 -0.11578806716652745 0.0021487459202276576 -0.097753208467996164 0.09271538185114081 7.0479101326591134e-05 -0.09154247732755047 0.081351703977118772 0.048924662476304052 -0.044611145446146701 0.0070769233918804939 0.066441701353220375 -0.10813271325869994 -0.12708733654407908 0.15291147476015152 0.071918068003137478
leaf_weight=351.09132505953312 1088.9179459810257 2444.3361602574587 181.79135888814926 1220.6633974760771 1664.4679805189371 156.80183856189251 1641.9764156788588 932.00889970362186 213.78133372962475 2731.6071547418833 1169.4560310691595 3419.3115501105785 8488.9904114753008 587.57516664266586 282.35980099439621 677.18990448117256 2462.7031151503325 912.8897894769907 292.0113185942173 886.30083677172661 2301.6360949277878 1628.5153311491013 45.294141009449959 854.71742513775826 3094.5788445621729 1734.2407944351435 1507.781646296382 1809.3724695295095 246.66397050023079 288.06144863367081 3048.557551369071 2672.2821593880653 686.13483099639416 1416.5440805852413 698.636190995574 8592.0939390510321 5332.950110077858 49480.531702175736 154.60662220418453 1086.2678831666708 510.2983803153038 4492.1240341067314 1631.0180350840092 3849.1744858473539 574.73880502581596 488.19635954499245 2684.5115188360214 712.3420155197382 471.33068069815636 982.73859433829784 421.59416702389717 6574.9748163670301 569.85206842422485 732.39565819501877 313.58458626270294 177.88124004006386 508.67471966147423 1101.721372500062 3721.3067764937878 614.28947696089745 28551.957186356187 58.370675697922707 1499.286144644022
leaf_count=1405 4482 12191 864 5623 8646 664 8611 3828 887 12550 5035 13923 43418 2560 1314 3135 9891 3787 1169 3807 10512 7005 227 3560 12960 8586 6949 8403 1032 1169 15428 11008 2892 5890 2976 34914 25230 198913 712 5003 2174 18279 7159 15462 2515 2176 12443 3211 2249 4505 1998 26583 2641 3568 1333 784 2109 4639 15319 2900 150340 267 6187
internal_value=-0.000581853 0.0265872 0.0427779 -0.0948833 0.0590003 0.0258347 0.00495749 0.0751188 -0.0168182 0.0127125 0.034613 0.033355 -0.0784199 -0.0487186 0.0443645 0.0549976 0.0796342 -0.0565684 -0.115913 0.0414627 -0.00886872 0.0118176 -0.118094 0.045859 0.023445 -0.0234882 -0.0387096 -0.0116662 0.0861129 -0.119903 -0.0750871 0.0868864 0.0602266 0.0450911 0.0512529 0.0579345 -0.0715662 0.0898125 0.000883278 -0.0706071 0.0351495 0.0543141 -0.0345965 0.0736017 0.0346568 0.0332804 -0.0265612 -0.0831174 -0.0179197 -0.0942535 -0.00133514 0.0883201 -0.089387 -0.10678 -0.0397088 -0.113463 0.0464694 0.0681379 0.0542307 -0.0402705 -0.126012 -0.126516 0.0551798
internal_weight=179728 139529 120889 40199.4 95023.3 31077.7 6994.17 63945.6 25865.9 14840.7 29235.3 12109 18639.5 9104.56 5352.2 19904.1 61505.8 11025.2 33205.2 8924.54 9331.21 7029.58 32854.1 10809 7389.69 6660.22 2439.79 4295.11 52581.3 32562.1 3906.47 52399.5 19226.9 12495.1 11809 11110.4 9448.13 49727.2 4925.98 1300.05 5401.06 8038.24 3440.39 4131.53 5575.54 1577.11 3272.09 8113.65 1183.67 6929.98 1334.48 6731.78 3618.41 9534.97 1045.98 1842.35 5000.8 9693.82 4231.61 1597.03 28655.6 28610.3 1653.89
internal_count=800000 596344 505346 203656 390363 131168 31010 259195 114983 64445 121738 51895 90998 42679 22399 81693 248418 50538 172646 36601 40045 29533 171241 46005 32082 30488 10777 19122 211817 170072 19238 210953 78558 51311 48419 45443 43880 199945 21902 5890 22528 32794 15562 16776 22903 6658 15003 38095 5460 32635 5785 27247 18069 48319 4901 9430 20388 39553 17493 7405 150834 150607 6899
is_linear=0
shrinkage=0.1


Tree=5
num_leaves=64
num_cat=0
split_feature=637 2359 502 572 2141 658 1060 1597 2359 578 123 2355 640 55 1793 692 256 784 689 836 321 384 511 554 626 496 620 616 1060 2354 554 862 1526 567 683 468 2159 2359 617 2354 148 2364 532 2204 785 511 1391 32 596 691 1841 25 221 1059 691 1561 255 930 1742 727 828 211 954
split_gain=39147.5 19753 9254.24 7737.02 4594.53 3824.52 3476.6 3006.32 2412.73 2400.33 2364.69 2364.4 2097.39 1827.13 1716.32 1842.46 1409.68 1306.53 1298.31 1207.45 1130.93 1115.69 1279.61 1054.29 1071.85 1001.92 953.199 888.96 871.671 1149.31 904.786 846.438 819.193 772.45 877.308 770.801 710.86 908.67 703.493 696.549 685.637 665.576 626.754 599.794 595.507 572.281 571.459 507.923 507.083 558.307 498.968 522.271 488.964 479.775 465.416 504.995 461.865 453.537 449.497 448.637 435.27 434.277 429.928
threshold=-1.0000000180025095e-35 5228.0000000000009 0.00024708801356609916 0.0033703995868563656 -1.0000000180025095e-35 -1.4999999999999998 1.0000000180025095e-35 -1.0000000180025095e-35 3300.0000000000005 0.016165190376341346 0.0035995171638205652 702.00000000000011 1.5000000000000002 0.0039227544330060491 1.0000000180025095e-35 2.5000000000000004 0.44033451378345495 -11.458341121673582 1.0000000180025095e-35 842.00000000000011 6.5977199028566255e-06 0.029798982664942745 0.061225071549415595 0.0088696600869297999 1513802560.0000002 0.00365713459905237 16.500000000000004 1071214.5000000002 1.0000000180025095e-35 1145076.0000000002 0.0057981589343398818 -1.0000000180025095e-35 -1.0000000180025095e-35 0.012551082763820888 5.5000000000000009 0.042332775890827186 -1.0000000180025095e-35 3300.0000000000005 362496.00000000006 1638440.0000000002 0.0039569705259054908 4440.0000000000009 0.038994496688246734 -1.0000000180025095e-35 -5.013211488723754 0.00064262072555720817 1.0000000180025095e-35 0.0033607517834752802 0.0028676644433289771 1.5000000000000002 -1.0000000180025095e-35 0.0034037708537653093 0.00052495943964459013 1.0000000180025095e-35 1.5000000000000002 -1.0000000180025095e-35 0.020852866582572464 1.0000000180025095e-35 -1.0000000180025095e-35 12544.000000000002 -811703.99999999988 0.0084958951920270937 -1.0000000180025095e-35
decision_type=2 2 2 2 2 2 2 2 2 2 2 2 2 2 2 2 2 2 2 2 2 2 2 2 2 2 2 2 2 2 2 2 2 2 2 2 2 2 2 2 2 2 2 2 2 2 2 2 2 2 2 2 2 2 2 2 2 2 2 2 2 2 2
left_child=3 2 9 17 20 41 -5 27 25 11 28 35 14 23 15 42 -11 -1 39 -12 -4 22 44 24 46 26 -8 54 29 30 56 -30 -33 34 -26 -2 37 47 -24 -17 -20 -6 53 -34 -21 -16 -13 -19 49 52 -45 58 -25 62 55 -7 -9 -58 -52 61 -60 -38 -3
right_child=1 12 4 6 5 7 8 10 -10 16 19 13 -14 -15 45 18 -18 36 40 21 -22 -23 38 48 33 -27 -28 -29 31 -31 -32 32 43 -35 -36 -37 59 -39 -40 -41 -42 -43 -44 50 -46 -47 -48 -49 -50 -51 51 -53 -54 -55 -56 -57 57 -59 60 -61 -62 -63 -64
